{"learner":{"attributes":{"scikit_learn":"{\"_estimator_type\": \"classifier\"}"},"feature_names":["topic","difficulty_1to5","steps_count","steps_completeness","reasoning_quality","method_appropriateness","representation_use","explanation_clarity","units_handling","edge_case_handling","language_quality","computational_errors","conceptual_errors","correctness_pct","time_minutes","external_aid_suspected","originality_score","rubric_points"],"feature_types":["int","int","int","float","float","float","float","float","float","float","float","int","int","float","int","float","float","float"],"gradient_booster":{"model":{"gbtree_model_param":{"num_parallel_tree":"1","num_trees":"1200"},"iteration_indptr":[0,4,8,12,16,20,24,28,32,36,40,44,48,52,56,60,64,68,72,76,80,84,88,92,96,100,104,108,112,116,120,124,128,132,136,140,144,148,152,156,160,164,168,172,176,180,184,188,192,196,200,204,208,212,216,220,224,228,232,236,240,244,248,252,256,260,264,268,272,276,280,284,288,292,296,300,304,308,312,316,320,324,328,332,336,340,344,348,352,356,360,364,368,372,376,380,384,388,392,396,400,404,408,412,416,420,424,428,432,436,440,444,448,452,456,460,464,468,472,476,480,484,488,492,496,500,504,508,512,516,520,524,528,532,536,540,544,548,552,556,560,564,568,572,576,580,584,588,592,596,600,604,608,612,616,620,624,628,632,636,640,644,648,652,656,660,664,668,672,676,680,684,688,692,696,700,704,708,712,716,720,724,728,732,736,740,744,748,752,756,760,764,768,772,776,780,784,788,792,796,800,804,808,812,816,820,824,828,832,836,840,844,848,852,856,860,864,868,872,876,880,884,888,892,896,900,904,908,912,916,920,924,928,932,936,940,944,948,952,956,960,964,968,972,976,980,984,988,992,996,1000,1004,1008,1012,1016,1020,1024,1028,1032,1036,1040,1044,1048,1052,1056,1060,1064,1068,1072,1076,1080,1084,1088,1092,1096,1100,1104,1108,1112,1116,1120,1124,1128,1132,1136,1140,1144,1148,1152,1156,1160,1164,1168,1172,1176,1180,1184,1188,1192,1196,1200],"tree_info":[0,1,2,3,0,1,2,3,0,1,2,3,0,1,2,3,0,1,2,3,0,1,2,3,0,1,2,3,0,1,2,3,0,1,2,3,0,1,2,3,0,1,2,3,0,1,2,3,0,1,2,3,0,1,2,3,0,1,2,3,0,1,2,3,0,1,2,3,0,1,2,3,0,1,2,3,0,1,2,3,0,1,2,3,0,1,2,3,0,1,2,3,0,1,2,3,0,1,2,3,0,1,2,3,0,1,2,3,0,1,2,3,0,1,2,3,0,1,2,3,0,1,2,3,0,1,2,3,0,1,2,3,0,1,2,3,0,1,2,3,0,1,2,3,0,1,2,3,0,1,2,3,0,1,2,3,0,1,2,3,0,1,2,3,0,1,2,3,0,1,2,3,0,1,2,3,0,1,2,3,0,1,2,3,0,1,2,3,0,1,2,3,0,1,2,3,0,1,2,3,0,1,2,3,0,1,2,3,0,1,2,3,0,1,2,3,0,1,2,3,0,1,2,3,0,1,2,3,0,1,2,3,0,1,2,3,0,1,2,3,0,1,2,3,0,1,2,3,0,1,2,3,0,1,2,3,0,1,2,3,0,1,2,3,0,1,2,3,0,1,2,3,0,1,2,3,0,1,2,3,0,1,2,3,0,1,2,3,0,1,2,3,0,1,2,3,0,1,2,3,0,1,2,3,0,1,2,3,0,1,2,3,0,1,2,3,0,1,2,3,0,1,2,3,0,1,2,3,0,1,2,3,0,1,2,3,0,1,2,3,0,1,2,3,0,1,2,3,0,1,2,3,0,1,2,3,0,1,2,3,0,1,2,3,0,1,2,3,0,1,2,3,0,1,2,3,0,1,2,3,0,1,2,3,0,1,2,3,0,1,2,3,0,1,2,3,0,1,2,3,0,1,2,3,0,1,2,3,0,1,2,3,0,1,2,3,0,1,2,3,0,1,2,3,0,1,2,3,0,1,2,3,0,1,2,3,0,1,2,3,0,1,2,3,0,1,2,3,0,1,2,3,0,1,2,3,0,1,2,3,0,1,2,3,0,1,2,3,0,1,2,3,0,1,2,3,0,1,2,3,0,1,2,3,0,1,2,3,0,1,2,3,0,1,2,3,0,1,2,3,0,1,2,3,0,1,2,3,0,1,2,3,0,1,2,3,0,1,2,3,0,1,2,3,0,1,2,3,0,1,2,3,0,1,2,3,0,1,2,3,0,1,2,3,0,1,2,3,0,1,2,3,0,1,2,3,0,1,2,3,0,1,2,3,0,1,2,3,0,1,2,3,0,1,2,3,0,1,2,3,0,1,2,3,0,1,2,3,0,1,2,3,0,1,2,3,0,1,2,3,0,1,2,3,0,1,2,3,0,1,2,3,0,1,2,3,0,1,2,3,0,1,2,3,0,1,2,3,0,1,2,3,0,1,2,3,0,1,2,3,0,1,2,3,0,1,2,3,0,1,2,3,0,1,2,3,0,1,2,3,0,1,2,3,0,1,2,3,0,1,2,3,0,1,2,3,0,1,2,3,0,1,2,3,0,1,2,3,0,1,2,3,0,1,2,3,0,1,2,3,0,1,2,3,0,1,2,3,0,1,2,3,0,1,2,3,0,1,2,3,0,1,2,3,0,1,2,3,0,1,2,3,0,1,2,3,0,1,2,3,0,1,2,3,0,1,2,3,0,1,2,3,0,1,2,3,0,1,2,3,0,1,2,3,0,1,2,3,0,1,2,3,0,1,2,3,0,1,2,3,0,1,2,3,0,1,2,3,0,1,2,3,0,1,2,3,0,1,2,3,0,1,2,3,0,1,2,3,0,1,2,3,0,1,2,3,0,1,2,3,0,1,2,3,0,1,2,3,0,1,2,3,0,1,2,3,0,1,2,3,0,1,2,3,0,1,2,3,0,1,2,3,0,1,2,3,0,1,2,3,0,1,2,3,0,1,2,3,0,1,2,3,0,1,2,3,0,1,2,3,0,1,2,3,0,1,2,3,0,1,2,3,0,1,2,3,0,1,2,3,0,1,2,3,0,1,2,3,0,1,2,3,0,1,2,3,0,1,2,3,0,1,2,3,0,1,2,3,0,1,2,3,0,1,2,3,0,1,2,3,0,1,2,3,0,1,2,3,0,1,2,3,0,1,2,3,0,1,2,3,0,1,2,3,0,1,2,3,0,1,2,3,0,1,2,3,0,1,2,3,0,1,2,3,0,1,2,3,0,1,2,3,0,1,2,3,0,1,2,3,0,1,2,3,0,1,2,3,0,1,2,3,0,1,2,3,0,1,2,3,0,1,2,3,0,1,2,3,0,1,2,3,0,1,2,3,0,1,2,3,0,1,2,3,0,1,2,3,0,1,2,3,0,1,2,3,0,1,2,3,0,1,2,3,0,1,2,3,0,1,2,3,0,1,2,3,0,1,2,3,0,1,2,3,0,1,2,3,0,1,2,3,0,1,2,3,0,1,2,3,0,1,2,3,0,1,2,3,0,1,2,3,0,1,2,3,0,1,2,3,0,1,2,3,0,1,2,3,0,1,2,3,0,1,2,3,0,1,2,3,0,1,2,3,0,1,2,3,0,1,2,3,0,1,2,3,0,1,2,3,0,1,2,3,0,1,2,3,0,1,2,3,0,1,2,3,0,1,2,3,0,1,2,3,0,1,2,3,0,1,2,3,0,1,2,3,0,1,2,3],"trees":[{"base_weights":[-6.0754716E-1,-6.6025025E-1,1.68E-1,-6.6408895E-2,1.1764706E-2],"categories":[],"categories_nodes":[],"categories_segments":[],"categories_sizes":[],"default_left":[0,0,0,0,0],"id":0,"left_children":[1,3,-1,-1,-1],"loss_changes":[3.305783E1,8.537674E-1,0E0,0E0,0E0],"parents":[2147483647,0,0,1,1],"right_children":[2,4,-1,-1,-1],"split_conditions":[7.03E1,6.97E1,1.68E-1,-6.6408895E-2,1.1764706E-2],"split_indices":[17,17,0,0,0],"split_type":[0,0,0,0,0],"sum_hessian":[2.64E2,2.5875E2,5.25E0,2.57625E2,1.125E0],"tree_param":{"num_deleted":"0","num_feature":"18","num_nodes":"5","size_leaf_vector":"1"}},{"base_weights":[-4.026156E-1,-6.638298E-2,1.4349443E0,1.8914027E0,-5.714286E-2,1.9245283E-1,5.8823533E-2],"categories":[],"categories_nodes":[],"categories_segments":[],"categories_sizes":[],"default_left":[0,0,0,0,0,0,0],"id":1,"left_children":[1,-1,3,5,-1,-1,-1],"loss_changes":[1.2941168E2,0E0,3.1875443E1,6.0440063E-2,0E0,0E0,0E0],"parents":[2147483647,0,0,2,2,3,3],"right_children":[2,-1,4,6,-1,-1,-1],"split_conditions":[6.03E1,-6.638298E-2,7.03E1,6.97E1,-5.714286E-2,1.9245283E-1,5.8823533E-2],"split_indices":[17,0,17,17,0,0,0],"split_type":[0,0,0,0,0,0,0],"sum_hessian":[2.66625E2,2.34E2,3.2625E1,2.6625E1,6E0,2.55E1,1.125E0],"tree_param":{"num_deleted":"0","num_feature":"18","num_nodes":"7","size_leaf_vector":"1"}},{"base_weights":[-2.6753977E-1,-6.580311E-1,7.3754156E-1,-6.6318534E-2,-0E0,1.9504644E-1,-6.480836E-2],"categories":[],"categories_nodes":[],"categories_segments":[],"categories_sizes":[],"default_left":[0,0,0,0,0,0,0],"id":2,"left_children":[1,3,5,-1,-1,-1,-1],"loss_changes":[1.05374405E2,6.545944E-1,1.2773347E2,0E0,0E0,0E0,0E0],"parents":[2147483647,0,0,1,1,2,2],"right_children":[2,4,6,-1,-1,-1,-1],"split_conditions":[5.02E1,4.99E1,6.03E1,-6.6318534E-2,-0E0,1.9504644E-1,-6.480836E-2],"split_indices":[17,17,17,0,0,0,0],"split_type":[0,0,0,0,0,0,0],"sum_hessian":[2.6625E2,1.92E2,7.425E1,1.905E2,1.5E0,3.9375E1,3.4875E1],"tree_param":{"num_deleted":"0","num_feature":"18","num_nodes":"7","size_leaf_vector":"1"}},{"base_weights":[1.253285E0,1.9849811E-1,-6.580227E-2],"categories":[],"categories_nodes":[],"categories_segments":[],"categories_sizes":[],"default_left":[0,0,0],"id":3,"left_children":[1,-1,-1],"loss_changes":[3.871164E2,0E0,0E0],"parents":[2147483647,0,0],"right_children":[2,-1,-1],"split_conditions":[5.02E1,1.9849811E-1,-6.580227E-2],"split_indices":[17,0,0],"split_type":[0,0,0],"sum_hessian":[2.74875E2,1.9875E2,7.6125E1],"tree_param":{"num_deleted":"0","num_feature":"18","num_nodes":"3","size_leaf_vector":"1"}},{"base_weights":[-5.919109E-1,-6.4885974E-2,1.4577721E-1],"categories":[],"categories_nodes":[],"categories_segments":[],"categories_sizes":[],"default_left":[0,0,0],"id":4,"left_children":[1,-1,-1],"loss_changes":[3.090966E1,0E0,0E0],"parents":[2147483647,0,0],"right_children":[2,-1,-1],"split_conditions":[7.03E1,-6.4885974E-2,1.4577721E-1],"split_indices":[17,0,0],"split_type":[0,0,0],"sum_hessian":[2.5569942E2,2.4945203E2,6.2473955E0],"tree_param":{"num_deleted":"0","num_feature":"18","num_nodes":"3","size_leaf_vector":"1"}},{"base_weights":[-3.614756E-1,-6.484962E-2,1.2993381E0,1.5879259E-1,-5.4630708E-2],"categories":[],"categories_nodes":[],"categories_segments":[],"categories_sizes":[],"default_left":[0,0,0,0,0],"id":5,"left_children":[1,-1,3,-1,-1],"loss_changes":[1.26691574E2,0E0,2.1765442E1,0E0,0E0],"parents":[2147483647,0,0,2,2],"right_children":[2,-1,4,-1,-1],"split_conditions":[6.03E1,-6.484962E-2,7.03E1,1.5879259E-1,-5.4630708E-2],"split_indices":[17,0,17,0,0],"split_type":[0,0,0,0,0],"sum_hessian":[2.6300708E2,2.2477173E2,3.823536E1,3.3185986E1,5.049372E0],"tree_param":{"num_deleted":"0","num_feature":"18","num_nodes":"5","size_leaf_vector":"1"}},{"base_weights":[-2.1687005E-1,-6.425901E-1,7.4541837E-1,-6.478499E-2,8.987143E-4,1.6225295E-1,-6.3241E-2],"categories":[],"categories_nodes":[],"categories_segments":[],"categories_sizes":[],"default_left":[0,0,0,0,0,0,0],"id":6,"left_children":[1,3,5,-1,-1,-1,-1],"loss_changes":[1.10197334E2,6.440048E-1,1.0085869E2,0E0,0E0,0E0,0E0],"parents":[2147483647,0,0,1,1,2,2],"right_children":[2,4,6,-1,-1,-1,-1],"split_conditions":[5.02E1,4.99E1,6.03E1,-6.478499E-2,8.987143E-4,1.6225295E-1,-6.3241E-2],"split_indices":[17,17,17,0,0,0,0],"split_type":[0,0,0,0,0,0,0],"sum_hessian":[2.6682422E2,1.8521613E2,8.1608086E1,1.8373865E2,1.4774865E0,4.9756207E1,3.185188E1],"tree_param":{"num_deleted":"0","num_feature":"18","num_nodes":"7","size_leaf_vector":"1"}},{"base_weights":[1.0578158E0,1.6389302E0,-6.431245E-2,1.6433299E-1,4.9023453E-2],"categories":[],"categories_nodes":[],"categories_segments":[],"categories_sizes":[],"default_left":[0,0,0,0,0],"id":7,"left_children":[1,3,-1,-1,-1],"loss_changes":[2.8926263E2,2.9412842E-1,0E0,0E0,0E0],"parents":[2147483647,0,0,1,1],"right_children":[2,4,-1,-1,-1],"split_conditions":[5.02E1,4.98E1,-6.431245E-2,1.6433299E-1,4.9023453E-2],"split_indices":[17,17,0,0,0],"split_type":[0,0,0,0,0],"sum_hessian":[2.9057892E2,2.1661154E2,7.396738E1,2.1535612E2,1.2554277E0],"tree_param":{"num_deleted":"0","num_feature":"18","num_nodes":"5","size_leaf_vector":"1"}},{"base_weights":[-5.770099E-1,-6.3076353E-1,1.2673157E-1,-6.348368E-2,1.3349903E-2],"categories":[],"categories_nodes":[],"categories_segments":[],"categories_sizes":[],"default_left":[0,0,0,0,0],"id":8,"left_children":[1,3,-1,-1,-1],"loss_changes":[2.5144394E1,8.29628E-1,0E0,0E0,0E0],"parents":[2147483647,0,0,1,1],"right_children":[2,4,-1,-1,-1],"split_conditions":[7.03E1,6.97E1,1.2673157E-1,-6.348368E-2,1.3349903E-2],"split_indices":[17,17,0,0,0],"split_type":[0,0,0,0,0],"sum_hessian":[2.4456406E2,2.3827737E2,6.286691E0,2.371826E2,1.094765E0],"tree_param":{"num_deleted":"0","num_feature":"18","num_nodes":"5","size_leaf_vector":"1"}},{"base_weights":[-3.6462647E-1,-6.344614E-2,1.0662202E0,1.3843544E-1,-4.404782E-1,1.1322449E-2,-5.5152833E-2],"categories":[],"categories_nodes":[],"categories_segments":[],"categories_sizes":[],"default_left":[0,0,0,0,0,0,0],"id":9,"left_children":[1,-1,3,-1,5,-1,-1],"loss_changes":[9.725703E1,0E0,1.9812977E1,0E0,5.3855026E-1,0E0,0E0],"parents":[2147483647,0,0,2,2,4,4],"right_children":[2,-1,4,-1,6,-1,-1],"split_conditions":[6.03E1,-6.344614E-2,6.97E1,1.3843544E-1,4E0,1.1322449E-2,-5.5152833E-2],"split_indices":[17,0,17,0,2,0,0],"split_type":[0,0,0,0,0,0,0],"sum_hessian":[2.4914879E2,2.1008641E2,3.9062378E1,3.231944E1,6.7429385E0,1.1231693E0,5.619769E0],"tree_param":{"num_deleted":"0","num_feature":"18","num_nodes":"7","size_leaf_vector":"1"}},{"base_weights":[-2.1986735E-1,-6.200458E-1,2.7457497E-1,-6.264788E-1,1.0168709E-2,4.5042592E-1,-3.345784E-1,-6.329506E-2,-2.5869673E-1,-3.096412E-1,6.0651404E-1,5.8619696E-1,-5.670367E-1,-4.2700525E-2,1.0168709E-2,-5.1798236E-1,4.1406852E-1,1.3713624E-1,7.498257E-1,8.424594E-1,-3.223031E-2,1.0028015E-2,-6.0837824E-2,-5.855478E-2,1.0168709E-2,9.176837E-2,-3.6651146E-2,-1.857914E-1,8.4729224E-1,9.232056E-1,3.2312757E-1,1.0404668E-1,1.0098312E-2,-5.553269E-2,2.4333177E-2,5.136148E-5,1.1150626E-1,-7.6296455E-3,9.716473E-2,6.408536E-2,-2.7968837E-2],"categories":[],"categories_nodes":[],"categories_segments":[],"categories_sizes":[],"default_left":[0,0,0,0,0,0,0,0,0,0,0,0,0,0,0,0,0,0,0,0,0,0,0,0,0,0,0,0,0,0,0,0,0,0,0,0,0,0,0,0,0],"id":10,"left_children":[1,3,5,7,-1,9,11,-1,13,15,17,19,21,-1,-1,23,25,27,29,31,-1,-1,-1,-1,-1,-1,-1,33,35,37,39,-1,-1,-1,-1,-1,-1,-1,-1,-1,-1],"loss_changes":[5.161711E1,7.323265E-1,1.2683733E1,1.7634201E-1,0E0,1.1009491E1,6.0651217E0,0E0,2.958664E-1,2.657521E0,5.010401E0,1.6428988E0,6.6498566E-1,0E0,0E0,6.0488796E-1,1.9785912E0,4.5155554E0,3.9933052E0,6.101022E-1,0E0,0E0,0E0,0E0,0E0,0E0,0E0,2.3367493E0,1.3871312E0,2.0452347E0,3.6840863E0,0E0,0E0,0E0,0E0,0E0,0E0,0E0,0E0,0E0,0E0],"parents":[2147483647,0,0,1,1,2,2,3,3,5,5,6,6,8,8,9,9,10,10,11,11,12,12,15,15,16,16,17,17,18,18,19,19,27,27,28,28,29,29,30,30],"right_children":[2,4,6,8,-1,10,12,-1,14,16,18,20,22,-1,-1,24,26,28,30,32,-1,-1,-1,-1,-1,-1,-1,34,36,38,40,-1,-1,-1,-1,-1,-1,-1,-1,-1,-1],"split_conditions":[6.71E1,8.62E-1,9.08E1,7.69E-1,1.0168709E-2,6.13E-1,7.99E-1,-6.329506E-2,4E0,6.96E-1,7.25E1,5E0,5.7E-1,-4.2700525E-2,1.0168709E-2,1.8E1,5.5E1,7.93E-1,6.34E-1,6.32E-1,-3.223031E-2,1.0028015E-2,-6.0837824E-2,-5.855478E-2,1.0168709E-2,9.176837E-2,-3.6651146E-2,5E-1,5.75E-1,3.08E-1,6.39E-1,1.0404668E-1,1.0098312E-2,-5.553269E-2,2.4333177E-2,5.136148E-5,1.1150626E-1,-7.6296455E-3,9.716473E-2,6.408536E-2,-2.7968837E-2],"split_indices":[13,4,13,16,0,4,4,0,1,5,13,0,5,0,0,2,14,4,16,6,0,0,0,0,0,0,0,5,6,7,6,0,0,0,0,0,0,0,0,0,0],"split_type":[0,0,0,0,0,0,0,0,0,0,0,0,0,0,0,0,0,0,0,0,0,0,0,0,0,0,0,0,0,0,0,0,0,0,0,0,0,0,0,0,0],"sum_hessian":[2.590097E2,1.4301004E2,1.15999664E2,1.4187744E2,1.1326128E0,9.021646E1,2.5783205E1,1.3871548E2,3.161945E0,1.5202842E1,7.501362E1,4.8904057E0,2.08928E1,2.0293324E0,1.1326128E0,1.2025279E1,3.177563E0,1.8003859E1,5.700976E1,3.8711536E0,1.0192522E0,1.1356702E0,1.9757128E1,1.0892666E1,1.1326128E0,1.8246747E0,1.3528882E0,1.2883674E1,5.1201844E0,3.9710583E1,1.7299177E1,2.7370121E0,1.1341414E0,6.764441E0,6.1192327E0,1.4708349E0,3.6493495E0,1.8090569E0,3.7901527E1,1.1287026E1,6.01215E0],"tree_param":{"num_deleted":"0","num_feature":"18","num_nodes":"41","size_leaf_vector":"1"}},{"base_weights":[9.639603E-1,1.406716E-1,-6.286815E-2],"categories":[],"categories_nodes":[],"categories_segments":[],"categories_sizes":[],"default_left":[0,0,0],"id":11,"left_children":[1,-1,-1],"loss_changes":[2.1635306E2,0E0,0E0],"parents":[2147483647,0,0],"right_children":[2,-1,-1],"split_conditions":[5.02E1,1.406716E-1,-6.286815E-2],"split_indices":[17,0,0],"split_type":[0,0,0],"sum_hessian":[3.0456387E2,2.3840408E2,6.615978E1],"tree_param":{"num_deleted":"0","num_feature":"18","num_nodes":"3","size_leaf_vector":"1"}},{"base_weights":[-5.590996E-1,-6.1800706E-1,1.14601664E-1,-6.222291E-2,1.14797335E-2],"categories":[],"categories_nodes":[],"categories_segments":[],"categories_sizes":[],"default_left":[0,0,0,0,0],"id":12,"left_children":[1,3,-1,-1,-1],"loss_changes":[2.3971397E1,7.6607513E-1,0E0,0E0,0E0],"parents":[2147483647,0,0,1,1],"right_children":[2,4,-1,-1,-1],"split_conditions":[7.03E1,6.97E1,1.14601664E-1,-6.222291E-2,1.14797335E-2],"split_indices":[17,17,0,0,0],"split_type":[0,0,0,0,0],"sum_hessian":[2.3060295E2,2.2351851E2,7.084447E0,2.2238812E2,1.1303809E0],"tree_param":{"num_deleted":"0","num_feature":"18","num_nodes":"5","size_leaf_vector":"1"}},{"base_weights":[-3.5390165E-1,-6.2206548E-2,1.0075049E0,1.2196723E-1,-5.1927805E-2],"categories":[],"categories_nodes":[],"categories_segments":[],"categories_sizes":[],"default_left":[0,0,0,0,0],"id":13,"left_children":[1,-1,3,-1,-1],"loss_changes":[8.9213776E1,0E0,1.3691963E1,0E0,0E0],"parents":[2147483647,0,0,2,2],"right_children":[2,-1,4,-1,-1],"split_conditions":[6.03E1,-6.2206548E-2,7.03E1,1.2196723E-1,-5.1927805E-2],"split_indices":[17,0,17,0,0],"split_type":[0,0,0,0,0],"sum_hessian":[2.4165102E2,2.0233838E2,3.931264E1,3.4692757E1,4.6198816E0],"tree_param":{"num_deleted":"0","num_feature":"18","num_nodes":"5","size_leaf_vector":"1"}},{"base_weights":[-2.1404001E-1,-6.2254097E-2,5.87055E-1,1.2380202E0,-6.115653E-2,2.0110838E-3,1.2705535E-1],"categories":[],"categories_nodes":[],"categories_segments":[],"categories_sizes":[],"default_left":[0,0,0,0,0,0,0],"id":14,"left_children":[1,-1,3,5,-1,-1,-1],"loss_changes":[8.171023E1,0E0,6.66592E1,2.1562881E0,0E0,0E0,0E0],"parents":[2147483647,0,0,2,2,3,3],"right_children":[2,-1,4,6,-1,-1,-1],"split_conditions":[4.99E1,-6.2254097E-2,6.03E1,5.02E1,-6.115653E-2,2.0110838E-3,1.2705535E-1],"split_indices":[17,0,17,17,0,0,0],"split_type":[0,0,0,0,0,0,0],"sum_hessian":[2.4757214E2,1.6411047E2,8.346166E1,5.406587E1,2.9395796E1,1.4487559E0,5.2617115E1],"tree_param":{"num_deleted":"0","num_feature":"18","num_nodes":"7","size_leaf_vector":"1"}},{"base_weights":[8.5399455E-1,1.2414968E-1,-6.177932E-2],"categories":[],"categories_nodes":[],"categories_segments":[],"categories_sizes":[],"default_left":[0,0,0],"id":15,"left_children":[1,-1,-1],"loss_changes":[1.8208505E2,0E0,0E0],"parents":[2147483647,0,0],"right_children":[2,-1,-1],"split_conditions":[5.02E1,1.2414968E-1,-6.177932E-2],"split_indices":[17,0,0],"split_type":[0,0,0],"sum_hessian":[3.169228E2,2.5099548E2,6.592732E1],"tree_param":{"num_deleted":"0","num_feature":"18","num_nodes":"3","size_leaf_vector":"1"}},{"base_weights":[-5.410018E-1,-6.1046895E-2,9.53013E-1,1.0788544E-1,3.6762094E-3],"categories":[],"categories_nodes":[],"categories_segments":[],"categories_sizes":[],"default_left":[0,0,0,0,0],"id":16,"left_children":[1,-1,3,-1,-1],"loss_changes":[2.2884945E1,0E0,1.1062813E0,0E0,0E0],"parents":[2147483647,0,0,2,2],"right_children":[2,-1,4,-1,-1],"split_conditions":[6.97E1,-6.1046895E-2,7.97E-1,1.0788544E-1,3.6762094E-3],"split_indices":[17,0,6,0,0],"split_type":[0,0,0,0,0],"sum_hessian":[2.138978E2,2.049592E2,8.93859E0,7.703145E0,1.2354455E0],"tree_param":{"num_deleted":"0","num_feature":"18","num_nodes":"5","size_leaf_vector":"1"}},{"base_weights":[-3.2528913E-1,-6.10268E-2,8.977015E-1,1.0960907E-1,-5.200119E-2],"categories":[],"categories_nodes":[],"categories_segments":[],"categories_sizes":[],"default_left":[0,0,0,0,0],"id":17,"left_children":[1,-1,3,-1,-1],"loss_changes":[8.068455E1,0E0,1.2905243E1,0E0,0E0],"parents":[2147483647,0,0,2,2],"right_children":[2,-1,4,-1,-1],"split_conditions":[6.03E1,-6.10268E-2,7.03E1,1.0960907E-1,-5.200119E-2],"split_indices":[17,0,17,0,0],"split_type":[0,0,0,0,0],"sum_hessian":[2.2893007E2,1.8607277E2,4.2857307E1,3.779525E1,5.062057E0],"tree_param":{"num_deleted":"0","num_feature":"18","num_nodes":"5","size_leaf_vector":"1"}},{"base_weights":[-2.120061E-1,-6.1064024E-2,5.351357E-1,1.1101989E0,-5.986611E-2,2.8630854E-3,1.1375219E-1],"categories":[],"categories_nodes":[],"categories_segments":[],"categories_sizes":[],"default_left":[0,0,0,0,0,0,0],"id":18,"left_children":[1,-1,3,5,-1,-1,-1],"loss_changes":[7.28073E1,0E0,5.6215965E1,1.648323E0,0E0,0E0,0E0],"parents":[2147483647,0,0,2,2,3,3],"right_children":[2,-1,4,6,-1,-1,-1],"split_conditions":[4.99E1,-6.1064024E-2,6.03E1,5.02E1,-5.986611E-2,2.8630854E-3,1.1375219E-1],"split_indices":[17,0,17,17,0,0,0],"split_type":[0,0,0,0,0,0,0],"sum_hessian":[2.4235698E2,1.5815616E2,8.4200806E1,5.587948E1,2.8321331E1,1.4273263E0,5.4452152E1],"tree_param":{"num_deleted":"0","num_feature":"18","num_nodes":"7","size_leaf_vector":"1"}},{"base_weights":[7.9076034E-1,1.1146504E-1,-6.0539473E-2],"categories":[],"categories_nodes":[],"categories_segments":[],"categories_sizes":[],"default_left":[0,0,0],"id":19,"left_children":[1,-1,-1],"loss_changes":[1.4220616E2,0E0,0E0],"parents":[2147483647,0,0],"right_children":[2,-1,-1],"split_conditions":[5.02E1,1.1146504E-1,-6.0539473E-2],"split_indices":[17,0,0],"split_type":[0,0,0],"sum_hessian":[3.119835E2,2.5339966E2,5.858383E1],"tree_param":{"num_deleted":"0","num_feature":"18","num_nodes":"3","size_leaf_vector":"1"}},{"base_weights":[-5.447651E-1,-6.0015555E-2,9.4111264E-2],"categories":[],"categories_nodes":[],"categories_segments":[],"categories_sizes":[],"default_left":[0,0,0],"id":20,"left_children":[1,-1,-1],"loss_changes":[1.79132E1,0E0,0E0],"parents":[2147483647,0,0],"right_children":[2,-1,-1],"split_conditions":[7.03E1,-6.0015555E-2,9.4111264E-2],"split_indices":[17,0,0],"split_type":[0,0,0],"sum_hessian":[2.0978568E2,2.0282101E2,6.9646516E0],"tree_param":{"num_deleted":"0","num_feature":"18","num_nodes":"3","size_leaf_vector":"1"}},{"base_weights":[-3.3736587E-1,-5.537702E-1,5.893224E-1,-5.8016354E-1,2.472264E-2,-1.9226205E-1,6.856248E-1,-5.9900332E-2,-2.3046562E-1,-3.570507E-1,5.601742E-1,-4.599194E-2,3.7939664E-2,-3.3853807E-2,7.2871333E-1,-4.217725E-1,2.4380672E-1,-4.7605332E-2,8.901004E-3,7.038664E-2,8.251734E-3,-7.012188E-3,7.683084E-1,8.645394E-3,-5.1544424E-2,6.5888125E-5,3.8779933E-2,8.088071E-1,1.024532E-2,8.792824E-3,8.302392E-2],"categories":[],"categories_nodes":[],"categories_segments":[],"categories_sizes":[],"default_left":[0,0,0,0,0,0,0,0,0,0,0,0,0,0,0,0,0,0,0,0,0,0,0,0,0,0,0,0,0,0,0],"id":21,"left_children":[1,3,5,7,9,11,13,-1,15,17,19,-1,-1,-1,21,23,25,-1,-1,-1,-1,-1,27,-1,-1,-1,-1,29,-1,-1,-1],"loss_changes":[4.486089E1,2.7710037E0,3.3327103E0,9.9980927E-1,2.0064921E0,1.0077835E0,1.927166E0,0E0,1.0513735E0,3.486361E-1,2.2109354E-1,0E0,0E0,0E0,1.2197571E0,4.1664433E-1,1.2713684E-1,0E0,0E0,0E0,0E0,0E0,8.6642456E-1,0E0,0E0,0E0,0E0,4.3745995E-1,0E0,0E0,0E0],"parents":[2147483647,0,0,1,1,2,2,3,3,4,4,5,5,6,6,8,8,9,9,10,10,14,14,15,15,16,16,22,22,27,27],"right_children":[2,4,6,8,10,12,14,-1,16,18,20,-1,-1,-1,22,24,26,-1,-1,-1,-1,-1,28,-1,-1,-1,-1,30,-1,-1,-1],"split_conditions":[8.51E1,8.08E-1,7.39E-1,8.15E1,8.47E-1,7.31E-1,7.1E-2,-5.9900332E-2,8.24E-1,7.44E-1,8.86E-1,-4.599194E-2,3.7939664E-2,-3.3853807E-2,3.83E-1,8.27E1,7.58E-1,-4.7605332E-2,8.901004E-3,7.038664E-2,8.251734E-3,-7.012188E-3,6.2E-1,8.645394E-3,-5.1544424E-2,6.5888125E-5,3.8779933E-2,4.72E-1,1.024532E-2,8.792824E-3,8.302392E-2],"split_indices":[13,5,4,13,4,8,15,0,3,8,4,0,0,0,16,13,4,0,0,0,0,0,15,0,0,0,0,5,0,0,0],"split_type":[0,0,0,0,0,0,0,0,0,0,0,0,0,0,0,0,0,0,0,0,0,0,0,0,0,0,0,0,0,0,0],"sum_hessian":[2.2107384E2,1.7954752E2,4.152631E1,1.7171046E2,7.83706E0,4.446044E0,3.7080265E1,1.6225609E2,9.454382E0,4.7695684E0,3.0674915E0,3.161335E0,1.284709E0,1.2202239E0,3.5860043E1,6.815795E0,2.6385868E0,3.7120166E0,1.0575521E0,1.9940461E0,1.0734453E0,1.65709E0,3.4202953E1,1.0727144E0,5.7430806E0,1.3550341E0,1.2835526E0,3.2039555E1,2.163399E0,1.0723741E0,3.0967178E1],"tree_param":{"num_deleted":"0","num_feature":"18","num_nodes":"31","size_leaf_vector":"1"}},{"base_weights":[-1.834008E-1,-5.9974264E-2,5.3652894E-1,1.0123142E0,-5.8614876E-2,3.7534342E-3,1.0349508E-1],"categories":[],"categories_nodes":[],"categories_segments":[],"categories_sizes":[],"default_left":[0,0,0,0,0,0,0],"id":22,"left_children":[1,-1,3,5,-1,-1,-1],"loss_changes":[6.9632164E1,0E0,4.6132973E1,1.2905121E0,0E0,0E0,0E0],"parents":[2147483647,0,0,2,2,3,3],"right_children":[2,-1,4,6,-1,-1,-1],"split_conditions":[4.99E1,-5.9974264E-2,6.03E1,5.02E1,-5.8614876E-2,3.7534342E-3,1.0349508E-1],"split_indices":[17,0,17,17,0,0,0],"split_type":[0,0,0,0,0,0,0],"sum_hessian":[2.3023743E2,1.4598178E2,8.4255646E1,5.9245846E1,2.5009796E1,1.4049197E0,5.7840927E1],"tree_param":{"num_deleted":"0","num_feature":"18","num_nodes":"7","size_leaf_vector":"1"}},{"base_weights":[7.3152286E-1,1.0165788E0,-5.9445854E-2,1.0193973E-1,4.262279E-2],"categories":[],"categories_nodes":[],"categories_segments":[],"categories_sizes":[],"default_left":[0,0,0,0,0],"id":23,"left_children":[1,3,-1,-1,-1],"loss_changes":[1.2090166E2,1.953125E-3,0E0,0E0,0E0],"parents":[2147483647,0,0,1,1],"right_children":[2,4,-1,-1,-1],"split_conditions":[5.02E1,4.99E1,-5.9445854E-2,1.0193973E-1,4.262279E-2],"split_indices":[17,17,0,0,0],"split_type":[0,0,0,0,0],"sum_hessian":[3.1726474E2,2.6132016E2,5.5944572E1,2.593552E2,1.9649825E0],"tree_param":{"num_deleted":"0","num_feature":"18","num_nodes":"5","size_leaf_vector":"1"}},{"base_weights":[-5.2428687E-1,-5.902954E-2,8.249374E-1,9.361984E-2,3.0087088E-3],"categories":[],"categories_nodes":[],"categories_segments":[],"categories_sizes":[],"default_left":[0,0,0,0,0],"id":24,"left_children":[1,-1,3,-1,-1],"loss_changes":[1.7997044E1,0E0,8.196883E-1,0E0,0E0],"parents":[2147483647,0,0,2,2],"right_children":[2,-1,4,-1,-1],"split_conditions":[6.97E1,-5.902954E-2,7.97E-1,9.361984E-2,3.0087088E-3],"split_indices":[17,0,6,0,0],"split_type":[0,0,0,0,0],"sum_hessian":[1.9560924E2,1.8702199E2,8.587244E0,7.3768263E0,1.2104177E0],"tree_param":{"num_deleted":"0","num_feature":"18","num_nodes":"5","size_leaf_vector":"1"}},{"base_weights":[-3.2227954E-1,-5.3708184E-1,5.051279E-1,-5.7409996E-1,-1.2129085E-2,-4.1281343E-2,5.6386083E-1,-5.8913644E-2,-2.641338E-1,-4.7163267E-2,2.5583184E-1,-7.882894E-2,6.1962146E-1,-5.0026186E-2,1.8045263E-1,-3.8833942E-2,5.0656193E-1,-3.935731E-2,3.5790812E-2,7.1890754E-1,1.5334512E-1,-3.1131616E-2,4.8499018E-2,-6.347178E-3,7.117388E-2,7.6519454E-1,-7.3313937E-3,5.050428E-1,-3.0072907E-1,9.569728E-3,8.134399E-2,7.302354E-2,-3.1324015E-3,5.6523005E-3,-4.486254E-2],"categories":[],"categories_nodes":[],"categories_segments":[],"categories_sizes":[],"default_left":[0,0,0,0,0,0,0,0,0,0,0,0,0,0,0,0,0,0,0,0,0,0,0,0,0,0,0,0,0,0,0,0,0,0,0],"id":25,"left_children":[1,3,5,7,9,-1,11,-1,13,-1,15,17,19,-1,21,-1,23,-1,-1,25,27,-1,-1,-1,-1,29,-1,31,33,-1,-1,-1,-1,-1,-1],"loss_changes":[3.760419E1,3.2431107E0,2.5946217E0,5.724449E-1,1.6029444E0,0E0,1.5395288E0,0E0,1.0392638E0,0E0,1.5295951E0,7.1929455E-1,1.6669483E0,0E0,7.3066205E-1,0E0,7.9069257E-1,0E0,0E0,1.2067242E0,1.4311091E0,0E0,0E0,0E0,0E0,8.825512E-1,0E0,6.1318636E-1,2.4320605E-1,0E0,0E0,0E0,0E0,0E0,0E0],"parents":[2147483647,0,0,1,1,2,2,3,3,4,4,6,6,8,8,10,10,11,11,12,12,14,14,16,16,19,19,20,20,25,25,27,27,28,28],"right_children":[2,4,6,8,10,-1,12,-1,14,-1,16,18,20,-1,22,-1,24,-1,-1,26,28,-1,-1,-1,-1,30,-1,32,34,-1,-1,-1,-1,-1,-1],"split_conditions":[8.51E1,8.47E-1,4.54E-1,8.13E1,5.86E-1,-4.1281343E-2,7.39E-1,-5.8913644E-2,1.3E1,-4.7163267E-2,7.43E1,7.31E-1,9.27E-1,-5.0026186E-2,5.58E-1,-3.8833942E-2,6.43E-1,-3.935731E-2,3.5790812E-2,6.25E-1,8.13E-1,-3.1131616E-2,4.8499018E-2,-6.347178E-3,7.117388E-2,4.12E-1,-7.3313937E-3,8.67E-1,9.36E1,9.569728E-3,8.134399E-2,7.302354E-2,-3.1324015E-3,5.6523005E-3,-4.486254E-2],"split_indices":[13,4,5,13,6,0,4,0,2,0,13,8,4,0,7,0,7,0,0,15,5,0,0,0,0,16,0,7,13,0,0,0,0,0,0],"split_type":[0,0,0,0,0,0,0,0,0,0,0,0,0,0,0,0,0,0,0,0,0,0,0,0,0,0,0,0,0,0,0,0,0,0,0],"sum_hessian":[2.0905519E2,1.6624692E2,4.2808277E1,1.5520844E2,1.1038478E1,2.2117658E0,4.059651E1,1.4716866E2,8.0397835E0,3.7860394E0,7.252439E0,3.2079864E0,3.7388527E1,5.169132E0,2.8706512E0,1.8781904E0,5.3742485E0,1.9218185E0,1.2861679E0,3.0378174E1,7.010352E0,1.0893326E0,1.7813185E0,1.605211E0,3.7690375E0,2.8733482E1,1.6446916E0,3.8872683E0,3.123084E0,2.1319623E0,2.660152E1,2.483238E0,1.4040303E0,1.0952543E0,2.0278296E0],"tree_param":{"num_deleted":"0","num_feature":"18","num_nodes":"35","size_leaf_vector":"1"}},{"base_weights":[-1.9464E-1,-5.615314E-1,2.3220989E-1,-5.7458764E-1,2.530523E-2,3.7212378E-1,-3.118264E-1,-5.810021E-1,-1.5227292E-1,-2.1024063E-1,4.628547E-1,4.3575695E-1,-5.155172E-1,-5.8779757E-2,-2.40748E-1,8.079701E-3,-3.070949E-2,-4.3505085E-1,3.1111008E-1,-3.9723173E-2,4.9299237E-1,-1.2519966E-3,5.9890468E-2,9.162872E-3,-5.600297E-2,-3.903846E-2,9.037156E-3,9.254021E-3,-5.1944163E-2,-6.792791E-3,5.8092903E-2,-3.7266277E-2,5.197999E-1,5.4392517E-2,-3.1186566E-3],"categories":[],"categories_nodes":[],"categories_segments":[],"categories_sizes":[],"default_left":[0,0,0,0,0,0,0,0,0,0,0,0,0,0,0,0,0,0,0,0,0,0,0,0,0,0,0,0,0,0,0,0,0,0,0],"id":26,"left_children":[1,3,5,7,-1,9,11,13,15,17,19,21,23,-1,25,-1,-1,27,29,-1,31,-1,-1,-1,-1,-1,-1,-1,-1,-1,-1,-1,33,-1,-1],"loss_changes":[3.438448E1,1.3994865E0,7.865567E0,2.267456E-1,0E0,4.400379E0,3.4789116E0,1.2269211E-1,1.3653418E-1,1.5025728E0,2.0303354E0,3.818013E-1,5.1758623E-1,0E0,2.3005664E-1,0E0,0E0,4.2953014E-1,4.5853594E-1,0E0,1.7908287E0,0E0,0E0,0E0,0E0,0E0,0E0,0E0,0E0,0E0,0E0,0E0,9.098797E-1,0E0,0E0],"parents":[2147483647,0,0,1,1,2,2,3,3,5,5,6,6,7,7,8,8,9,9,10,10,11,11,12,12,14,14,17,17,18,18,20,20,32,32],"right_children":[2,4,6,8,-1,10,12,14,16,18,20,22,24,-1,26,-1,-1,28,30,-1,32,-1,-1,-1,-1,-1,-1,-1,-1,-1,-1,-1,34,-1,-1],"split_conditions":[6.83E1,8.62E-1,9.08E1,8.03E-1,2.530523E-2,6.11E-1,7.99E-1,7.69E-1,5.05E-1,6.96E-1,2.45E-1,5.55E-1,4.39E-1,-5.8779757E-2,7.5E-1,8.079701E-3,-3.070949E-2,2.7E-1,6.36E-1,-3.9723173E-2,2.67E-1,-1.2519966E-3,5.9890468E-2,9.162872E-3,-5.600297E-2,-3.903846E-2,9.037156E-3,9.254021E-3,-5.1944163E-2,-6.792791E-3,5.8092903E-2,-3.7266277E-2,8.97E-1,5.4392517E-2,-3.1186566E-3],"split_indices":[13,4,13,4,0,4,4,16,3,5,8,10,10,0,5,0,0,9,3,0,7,0,0,0,0,0,0,0,0,0,0,0,3,0,0],"split_type":[0,0,0,0,0,0,0,0,0,0,0,0,0,0,0,0,0,0,0,0,0,0,0,0,0,0,0,0,0,0,0,0,0,0,0],"sum_hessian":[2.1772562E2,1.1691652E2,1.008091E2,1.15362114E2,1.554411E0,8.0438194E1,2.0370897E1,1.1326598E2,2.09613E0,1.0665239E1,6.977296E1,4.1179485E0,1.6252949E1,1.1033488E2,2.9311075E0,1.027482E0,1.068648E0,7.567577E0,3.0976624E0,1.9497323E0,6.782323E1,1.3451564E0,2.7727923E0,1.03788E0,1.521507E1,1.8955181E0,1.0355896E0,1.0302331E0,6.5373435E0,1.5992725E0,1.49839E0,1.649726E0,6.61735E1,6.3409874E1,2.763625E0],"tree_param":{"num_deleted":"0","num_feature":"18","num_nodes":"35","size_leaf_vector":"1"}},{"base_weights":[6.688386E-1,9.3905024E-2,-5.8537032E-2],"categories":[],"categories_nodes":[],"categories_segments":[],"categories_sizes":[],"default_left":[0,0,0],"id":27,"left_children":[1,-1,-1],"loss_changes":[1.0712239E2,0E0,0E0],"parents":[2147483647,0,0],"right_children":[2,-1,-1],"split_conditions":[5.02E1,9.3905024E-2,-5.8537032E-2],"split_indices":[17,0,0],"split_type":[0,0,0],"sum_hessian":[3.134648E2,2.5810825E2,5.535656E1],"tree_param":{"num_deleted":"0","num_feature":"18","num_nodes":"3","size_leaf_vector":"1"}},{"base_weights":[-5.0486314E-1,-5.8162857E-2,7.933751E-1,8.891165E-2,2.633853E-3],"categories":[],"categories_nodes":[],"categories_segments":[],"categories_sizes":[],"default_left":[0,0,0,0,0],"id":28,"left_children":[1,-1,3,-1,-1],"loss_changes":[1.8611572E1,0E0,7.543311E-1,0E0,0E0],"parents":[2147483647,0,0,2,2],"right_children":[2,-1,4,-1,-1],"split_conditions":[6.97E1,-5.8162857E-2,7.97E-1,8.891165E-2,2.633853E-3],"split_indices":[17,0,6,0,0],"split_type":[0,0,0,0,0],"sum_hessian":[1.8112077E2,1.715301E2,9.590665E0,8.384904E0,1.205761E0],"tree_param":{"num_deleted":"0","num_feature":"18","num_nodes":"5","size_leaf_vector":"1"}},{"base_weights":[-3.0383578E-1,-5.8215827E-2,7.373482E-1,9.0961725E-2,-5.0806236E-2],"categories":[],"categories_nodes":[],"categories_segments":[],"categories_sizes":[],"default_left":[0,0,0,0,0],"id":29,"left_children":[1,-1,3,-1,-1],"loss_changes":[5.8250275E1,0E0,9.586359E0,0E0,0E0],"parents":[2147483647,0,0,2,2],"right_children":[2,-1,4,-1,-1],"split_conditions":[6.03E1,-5.8215827E-2,7.03E1,9.0961725E-2,-5.0806236E-2],"split_indices":[17,0,17,0,0],"split_type":[0,0,0,0,0],"sum_hessian":[1.985308E2,1.5700273E2,4.1528076E1,3.6718662E1,4.809415E0],"tree_param":{"num_deleted":"0","num_feature":"18","num_nodes":"5","size_leaf_vector":"1"}},{"base_weights":[-1.7150588E-1,-5.81907E-2,4.7085857E-1,8.9349616E-1,-5.7442755E-2,5.442923E-3,9.1204636E-2],"categories":[],"categories_nodes":[],"categories_segments":[],"categories_sizes":[],"default_left":[0,0,0,0,0,0,0],"id":30,"left_children":[1,-1,3,5,-1,-1,-1],"loss_changes":[5.6485054E1,0E0,3.747821E1,8.8384247E-1,0E0,0E0,0E0],"parents":[2147483647,0,0,2,2,3,3],"right_children":[2,-1,4,6,-1,-1,-1],"split_conditions":[4.99E1,-5.81907E-2,6.03E1,5.02E1,-5.7442755E-2,5.442923E-3,9.1204636E-2],"split_indices":[17,0,17,17,0,0,0],"split_type":[0,0,0,0,0,0,0],"sum_hessian":[2.1222186E2,1.2954854E2,8.2673325E1,5.897382E1,2.3699503E1,1.3606958E0,5.7613125E1],"tree_param":{"num_deleted":"0","num_feature":"18","num_nodes":"7","size_leaf_vector":"1"}},{"base_weights":[6.258475E-1,8.7748426E-1,-5.7783883E-2,8.8046364E-2,2.190791E-2],"categories":[],"categories_nodes":[],"categories_segments":[],"categories_sizes":[],"default_left":[0,0,0,0,0],"id":31,"left_children":[1,3,-1,-1,-1],"loss_changes":[9.519219E1,3.15094E-1,0E0,0E0,0E0],"parents":[2147483647,0,0,1,1],"right_children":[2,4,-1,-1,-1],"split_conditions":[5.02E1,4.99E1,-5.7783883E-2,8.8046364E-2,2.190791E-2],"split_indices":[17,17,0,0,0],"split_type":[0,0,0,0,0],"sum_hessian":[3.1160394E2,2.579493E2,5.3654613E1,2.5645157E2,1.497744E0],"tree_param":{"num_deleted":"0","num_feature":"18","num_nodes":"5","size_leaf_vector":"1"}},{"base_weights":[-5.1260734E-1,-5.73467E-2,7.0151234E-1,8.1631914E-2,-3.4651364E-4],"categories":[],"categories_nodes":[],"categories_segments":[],"categories_sizes":[],"default_left":[0,0,0,0,0],"id":32,"left_children":[1,-1,3,-1,-1],"loss_changes":[1.28869095E1,0E0,6.919918E-1,0E0,0E0],"parents":[2147483647,0,0,2,2],"right_children":[2,-1,4,-1,-1],"split_conditions":[6.97E1,-5.73467E-2,7.68E-1,8.1631914E-2,-3.4651364E-4],"split_indices":[17,0,6,0,0],"split_type":[0,0,0,0,0],"sum_hessian":[1.6796008E2,1.6044519E2,7.5148997E0,6.326657E0,1.1882429E0],"tree_param":{"num_deleted":"0","num_feature":"18","num_nodes":"5","size_leaf_vector":"1"}},{"base_weights":[-2.7997255E-1,-5.738118E-2,6.8604356E-1,8.320297E-1,-4.946929E-2,8.474589E-2,2.5671987E-2],"categories":[],"categories_nodes":[],"categories_segments":[],"categories_sizes":[],"default_left":[0,0,0,0,0,0,0],"id":33,"left_children":[1,-1,3,5,-1,-1,-1],"loss_changes":[5.409599E1,0E0,8.096046E0,1.3792992E-1,0E0,0E0,0E0],"parents":[2147483647,0,0,2,2,3,3],"right_children":[2,-1,4,6,-1,-1,-1],"split_conditions":[6.03E1,-5.738118E-2,7.03E1,6.97E1,-4.946929E-2,8.474589E-2,2.5671987E-2],"split_indices":[17,0,17,17,0,0,0],"split_type":[0,0,0,0,0,0,0],"sum_hessian":[1.8819037E2,1.4460957E2,4.35808E1,3.904821E1,4.5325885E0,3.756764E1,1.4805722E0],"tree_param":{"num_deleted":"0","num_feature":"18","num_nodes":"7","size_leaf_vector":"1"}},{"base_weights":[-1.691989E-1,-5.734968E-2,4.4583246E-1,8.3542436E-1,-5.634866E-2,5.0449814E-3,8.536802E-2],"categories":[],"categories_nodes":[],"categories_segments":[],"categories_sizes":[],"default_left":[0,0,0,0,0,0,0],"id":34,"left_children":[1,-1,3,5,-1,-1,-1],"loss_changes":[4.9552727E1,0E0,3.1612553E1,7.8155136E-1,0E0,0E0,0E0],"parents":[2147483647,0,0,2,2,3,3],"right_children":[2,-1,4,6,-1,-1,-1],"split_conditions":[4.99E1,-5.734968E-2,6.03E1,5.02E1,-5.634866E-2,5.0449814E-3,8.536802E-2],"split_indices":[17,0,17,17,0,0,0],"split_type":[0,0,0,0,0,0,0],"sum_hessian":[1.9725406E2,1.1905766E2,7.819639E1,5.6543274E1,2.1653118E1,1.3706564E0,5.5172615E1],"tree_param":{"num_deleted":"0","num_feature":"18","num_nodes":"7","size_leaf_vector":"1"}},{"base_weights":[6.118687E-1,8.2587445E-1,-5.6849398E-2,8.283884E-2,3.334485E-2],"categories":[],"categories_nodes":[],"categories_segments":[],"categories_sizes":[],"default_left":[0,0,0,0,0],"id":35,"left_children":[1,3,-1,-1,-1],"loss_changes":[7.820762E1,4.6783447E-2,0E0,0E0,0E0],"parents":[2147483647,0,0,1,1],"right_children":[2,4,-1,-1,-1],"split_conditions":[5.02E1,4.99E1,-5.6849398E-2,8.283884E-2,3.334485E-2],"split_indices":[17,17,0,0,0],"split_type":[0,0,0,0,0],"sum_hessian":[3.0674643E2,2.5992163E2,4.6824802E1,2.5792264E2,1.9989959E0],"tree_param":{"num_deleted":"0","num_feature":"18","num_nodes":"5","size_leaf_vector":"1"}},{"base_weights":[-4.8745328E-1,-5.6607556E-2,7.0320725E-1,7.9077825E-2,1.7573083E-3],"categories":[],"categories_nodes":[],"categories_segments":[],"categories_sizes":[],"default_left":[0,0,0,0,0],"id":36,"left_children":[1,-1,3,-1,-1],"loss_changes":[1.5391926E1,0E0,6.085706E-1,0E0,0E0],"parents":[2147483647,0,0,2,2],"right_children":[2,-1,4,-1,-1],"split_conditions":[6.97E1,-5.6607556E-2,7.97E-1,7.9077825E-2,1.7573083E-3],"split_indices":[17,0,6,0,0],"split_type":[0,0,0,0,0],"sum_hessian":[1.591695E2,1.4980225E2,9.367245E0,8.170352E0,1.196892E0],"tree_param":{"num_deleted":"0","num_feature":"18","num_nodes":"5","size_leaf_vector":"1"}},{"base_weights":[-2.987087E-1,-5.662586E-2,6.405266E-1,7.8230095E-1,-4.7834583E-2,7.987093E-2,2.4376733E-2],"categories":[],"categories_nodes":[],"categories_segments":[],"categories_sizes":[],"default_left":[0,0,0,0,0,0,0],"id":37,"left_children":[1,-1,3,5,-1,-1,-1],"loss_changes":[4.4438E1,0E0,6.616993E0,1.1730385E-1,0E0,0E0,0E0],"parents":[2147483647,0,0,2,2,3,3],"right_children":[2,-1,4,6,-1,-1,-1],"split_conditions":[6.03E1,-5.662586E-2,7.03E1,6.97E1,-4.7834583E-2,7.987093E-2,2.4376733E-2],"split_indices":[17,0,17,17,0,0,0],"split_type":[0,0,0,0,0,0,0],"sum_hessian":[1.743945E2,1.3603949E2,3.8355007E1,3.4308525E1,4.0464835E0,3.2825268E1,1.4832574E0],"tree_param":{"num_deleted":"0","num_feature":"18","num_nodes":"7","size_leaf_vector":"1"}},{"base_weights":[-1.84122E-1,-5.6578007E-2,4.0100783E-1,7.863998E-1,-5.5463444E-2,4.94383E-3,8.051156E-2],"categories":[],"categories_nodes":[],"categories_segments":[],"categories_sizes":[],"default_left":[0,0,0,0,0,0,0],"id":38,"left_children":[1,-1,3,5,-1,-1,-1],"loss_changes":[4.148411E1,0E0,2.751223E1,6.8850327E-1,0E0,0E0,0E0],"parents":[2147483647,0,0,2,2,3,3],"right_children":[2,-1,4,6,-1,-1,-1],"split_conditions":[4.99E1,-5.6578007E-2,6.03E1,5.02E1,-5.5463444E-2,4.94383E-3,8.051156E-2],"split_indices":[17,0,17,17,0,0,0],"split_type":[0,0,0,0,0,0,0],"sum_hessian":[1.8374532E2,1.1122835E2,7.251697E1,5.1802948E1,2.0714024E1,1.3731914E0,5.0429756E1],"tree_param":{"num_deleted":"0","num_feature":"18","num_nodes":"7","size_leaf_vector":"1"}},{"base_weights":[5.7748026E-1,7.8249806E-1,-5.598242E-2,7.851716E-2,3.127412E-2],"categories":[],"categories_nodes":[],"categories_segments":[],"categories_sizes":[],"default_left":[0,0,0,0,0],"id":39,"left_children":[1,3,-1,-1,-1],"loss_changes":[6.524077E1,5.0704956E-2,0E0,0E0,0E0],"parents":[2147483647,0,0,1,1],"right_children":[2,4,-1,-1,-1],"split_conditions":[5.02E1,4.99E1,-5.598242E-2,7.851716E-2,3.127412E-2],"split_indices":[17,17,0,0,0],"split_type":[0,0,0,0,0],"sum_hessian":[2.769233E2,2.3489212E2,4.203118E1,2.3289517E2,1.9969568E0],"tree_param":{"num_deleted":"0","num_feature":"18","num_nodes":"5","size_leaf_vector":"1"}},{"base_weights":[-4.8841238E-1,-5.5931833E-2,6.498944E-1,7.439647E-2,1.0432443E-3],"categories":[],"categories_nodes":[],"categories_segments":[],"categories_sizes":[],"default_left":[0,0,0,0,0],"id":40,"left_children":[1,-1,3,-1,-1],"loss_changes":[1.2434036E1,0E0,5.4757357E-1,0E0,0E0],"parents":[2147483647,0,0,2,2],"right_children":[2,-1,4,-1,-1],"split_conditions":[6.97E1,-5.5931833E-2,7.97E-1,7.439647E-2,1.0432443E-3],"split_indices":[17,0,6,0,0],"split_type":[0,0,0,0,0],"sum_hessian":[1.485494E2,1.4031755E2,8.231838E0,7.0336986E0,1.1981394E0],"tree_param":{"num_deleted":"0","num_feature":"18","num_nodes":"5","size_leaf_vector":"1"}},{"base_weights":[-2.8531855E-1,-5.5933844E-2,6.2757885E-1,7.642071E-2,-4.6756793E-2],"categories":[],"categories_nodes":[],"categories_segments":[],"categories_sizes":[],"default_left":[0,0,0,0,0],"id":41,"left_children":[1,-1,3,-1,-1],"loss_changes":[4.101782E1,0E0,6.0436144E0,0E0,0E0],"parents":[2147483647,0,0,2,2],"right_children":[2,-1,4,-1,-1],"split_conditions":[6.03E1,-5.5933844E-2,7.03E1,7.642071E-2,-4.6756793E-2],"split_indices":[17,0,17,0,0],"split_type":[0,0,0,0,0],"sum_hessian":[1.615683E2,1.24565414E2,3.7002888E1,3.3167206E1,3.835684E0],"tree_param":{"num_deleted":"0","num_feature":"18","num_nodes":"5","size_leaf_vector":"1"}},{"base_weights":[-1.8095288E-1,-5.588625E-2,3.8417342E-1,7.5379926E-1,-5.4621506E-2,1.6027661E-2,7.62934E-2],"categories":[],"categories_nodes":[],"categories_segments":[],"categories_sizes":[],"default_left":[0,0,0,0,0,0,0],"id":42,"left_children":[1,-1,3,5,-1,-1,-1],"loss_changes":[3.768575E1,0E0,2.4795118E1,1.5511322E-1,0E0,0E0,0E0],"parents":[2147483647,0,0,2,2,3,3],"right_children":[2,-1,4,6,-1,-1,-1],"split_conditions":[4.99E1,-5.588625E-2,6.03E1,5.02E1,-5.4621506E-2,1.6027661E-2,7.62934E-2],"split_indices":[17,0,17,17,0,0,0],"split_type":[0,0,0,0,0,0,0],"sum_hessian":[1.7445366E2,1.04550224E2,6.9903435E1,5.016402E1,1.973942E1,1.0414637E0,4.9122555E1],"tree_param":{"num_deleted":"0","num_feature":"18","num_nodes":"7","size_leaf_vector":"1"}},{"base_weights":[5.4593503E-1,7.455921E-1,-5.5324346E-2,7.4861184E-2,1.6665196E-2],"categories":[],"categories_nodes":[],"categories_segments":[],"categories_sizes":[],"default_left":[0,0,0,0,0],"id":43,"left_children":[1,3,-1,-1,-1],"loss_changes":[6.066751E1,2.822113E-1,0E0,0E0,0E0],"parents":[2147483647,0,0,1,1],"right_children":[2,4,-1,-1,-1],"split_conditions":[5.02E1,4.99E1,-5.5324346E-2,7.4861184E-2,1.6665196E-2],"split_indices":[17,17,0,0,0],"split_type":[0,0,0,0,0],"sum_hessian":[2.7356198E2,2.3178226E2,4.1779724E1,2.3028801E2,1.4942502E0],"tree_param":{"num_deleted":"0","num_feature":"18","num_nodes":"5","size_leaf_vector":"1"}},{"base_weights":[-4.843674E-1,-5.5306673E-2,6.105561E-1,7.0604116E-2,9.5013384E-4],"categories":[],"categories_nodes":[],"categories_segments":[],"categories_sizes":[],"default_left":[0,0,0,0,0],"id":44,"left_children":[1,-1,3,-1,-1],"loss_changes":[1.061203E1,0E0,4.8338532E-1,0E0,0E0],"parents":[2147483647,0,0,2,2],"right_children":[2,-1,4,-1,-1],"split_conditions":[6.97E1,-5.5306673E-2,7.97E-1,7.0604116E-2,9.5013384E-4],"split_indices":[17,0,6,0,0],"split_type":[0,0,0,0,0],"sum_hessian":[1.3558975E2,1.2805031E2,7.5394416E0,6.355173E0,1.1842685E0],"tree_param":{"num_deleted":"0","num_feature":"18","num_nodes":"5","size_leaf_vector":"1"}},{"base_weights":[-2.689608E-1,-5.5322725E-2,5.9086543E-1,7.093292E-1,-4.55303E-2,7.252286E-2,2.0551426E-2],"categories":[],"categories_nodes":[],"categories_segments":[],"categories_sizes":[],"default_left":[0,0,0,0,0,0,0],"id":45,"left_children":[1,-1,3,5,-1,-1,-1],"loss_changes":[3.8402256E1,0E0,5.1797743E0,1.3607407E-1,0E0,0E0,0E0],"parents":[2147483647,0,0,2,2,3,3],"right_children":[2,-1,4,6,-1,-1,-1],"split_conditions":[6.03E1,-5.5322725E-2,7.03E1,6.97E1,-4.55303E-2,7.252286E-2,2.0551426E-2],"split_indices":[17,0,17,17,0,0,0],"split_type":[0,0,0,0,0,0,0],"sum_hessian":[1.5477864E2,1.1658962E2,3.818902E1,3.459374E1,3.5952773E0,3.31094E1,1.4843382E0],"tree_param":{"num_deleted":"0","num_feature":"18","num_nodes":"7","size_leaf_vector":"1"}},{"base_weights":[-1.6074774E-1,-5.524197E-2,3.8494787E-1,7.212614E-1,-5.376373E-2,1.9675031E-2,7.385584E-2],"categories":[],"categories_nodes":[],"categories_segments":[],"categories_sizes":[],"default_left":[0,0,0,0,0,0,0],"id":46,"left_children":[1,-1,3,5,-1,-1,-1],"loss_changes":[3.5809006E1,0E0,2.2162785E1,3.251667E-1,0E0,0E0,0E0],"parents":[2147483647,0,0,2,2,3,3],"right_children":[2,-1,4,6,-1,-1,-1],"split_conditions":[4.99E1,-5.524197E-2,6.03E1,5.77E-1,-5.376373E-2,1.9675031E-2,7.385584E-2],"split_indices":[17,0,17,4,0,0,0],"split_type":[0,0,0,0,0,0,0],"sum_hessian":[1.6554538E2,9.636632E1,6.9179054E1,5.085786E1,1.8321196E1,2.018672E0,4.883919E1],"tree_param":{"num_deleted":"0","num_feature":"18","num_nodes":"7","size_leaf_vector":"1"}},{"base_weights":[5.2773964E-1,6.76925E-1,-3.102835E-1,7.011437E-1,3.152946E-1,1.4955259E-2,-5.362553E-2,7.077106E-2,4.0775177E-1,4.9874797E-1,-2.081466E-1,-2.6095322E-1,2.5878626E-1,-4.764161E-3,5.130772E-2,5.963702E-1,8.348337E-2,1.8304983E-2,-4.0153142E-2,1.6127007E-1,-5.045041E-2,4.826344E-2,-1.5484534E-1,6.3741945E-2,1.7723946E-2,2.5345672E-2,-9.739202E-3,3.4903307E-2,-1.0111365E-2,1.908109E-2,-3.6868732E-2],"categories":[],"categories_nodes":[],"categories_segments":[],"categories_sizes":[],"default_left":[0,0,0,0,0,0,0,0,0,0,0,0,0,0,0,0,0,0,0,0,0,0,0,0,0,0,0,0,0,0,0],"id":47,"left_children":[1,3,5,7,9,11,-1,-1,13,15,17,19,21,-1,-1,23,25,-1,-1,27,-1,-1,29,-1,-1,-1,-1,-1,-1,-1,-1],"loss_changes":[3.281366E1,1.7205505E0,2.954809E0,1.1017609E-1,1.6145142E0,1.2387975E0,0E0,0E0,3.54931E-1,4.3440008E-1,4.357443E-1,9.7248125E-1,9.769749E-1,0E0,0E0,5.0601482E-2,1.303248E-1,0E0,0E0,2.2880018E-1,0E0,0E0,3.792291E-1,0E0,0E0,0E0,0E0,0E0,0E0,0E0,0E0],"parents":[2147483647,0,0,1,1,2,2,3,3,4,4,5,5,8,8,9,9,10,10,11,11,12,12,15,15,16,16,19,19,22,22],"right_children":[2,4,6,8,10,12,-1,-1,14,16,18,20,22,-1,-1,24,26,-1,-1,28,-1,-1,30,-1,-1,-1,-1,-1,-1,-1,-1],"split_conditions":[7.63E1,7.7E-1,7.58E-1,7.35E1,6.79E-1,1E0,-5.362553E-2,7.077106E-2,4.07E-1,5.55E-1,6.16E-1,6.36E-1,5.93E-1,-4.764161E-3,5.130772E-2,6.84E-1,3.62E-1,1.8304983E-2,-4.0153142E-2,3.68E-1,-5.045041E-2,4.826344E-2,6.8E-1,6.3741945E-2,1.7723946E-2,2.5345672E-2,-9.739202E-3,3.4903307E-2,-1.0111365E-2,1.908109E-2,-3.6868732E-2],"split_indices":[13,4,4,13,7,12,0,0,6,10,3,3,5,0,0,6,5,0,0,16,0,0,7,0,0,0,0,0,0,0,0],"split_type":[0,0,0,0,0,0,0,0,0,0,0,0,0,0,0,0,0,0,0,0,0,0,0,0,0,0,0,0,0,0,0],"sum_hessian":[2.5978574E2,2.2069052E2,3.9095207E1,2.0595848E2,1.473204E1,1.6410118E1,2.2685087E1,2.0006824E2,5.8902435E0,1.0943711E1,3.7883294E0,7.665713E0,8.744406E0,1.2092981E0,4.6809454E0,8.507588E0,2.4361224E0,1.2708931E0,2.5174363E0,2.9278274E0,4.7378855E0,5.5656037E0,3.178802E0,7.274336E0,1.233253E0,1.049037E0,1.3870854E0,1.514095E0,1.4137324E0,1.256112E0,1.9226902E0],"tree_param":{"num_deleted":"0","num_feature":"18","num_nodes":"31","size_leaf_vector":"1"}},{"base_weights":[-4.7223702E-1,-5.480376E-2,6.614163E-2],"categories":[],"categories_nodes":[],"categories_segments":[],"categories_sizes":[],"default_left":[0,0,0],"id":48,"left_children":[1,-1,-1],"loss_changes":[1.1376583E1,0E0,0E0],"parents":[2147483647,0,0],"right_children":[2,-1,-1],"split_conditions":[7.03E1,-5.480376E-2,6.614163E-2],"split_indices":[17,0,0],"split_type":[0,0,0],"sum_hessian":[1.2717296E2,1.196868E2,7.486161E0],"tree_param":{"num_deleted":"0","num_feature":"18","num_nodes":"3","size_leaf_vector":"1"}},{"base_weights":[-2.8579158E-1,-5.475678E-2,5.544846E-1,6.768308E-1,-4.4580955E-2,6.939518E-2,1.9637775E-2],"categories":[],"categories_nodes":[],"categories_segments":[],"categories_sizes":[],"default_left":[0,0,0,0,0,0,0],"id":49,"left_children":[1,-1,3,5,-1,-1,-1],"loss_changes":[3.222896E1,0E0,4.5817394E0,1.2331581E-1,0E0,0E0,0E0],"parents":[2147483647,0,0,2,2,3,3],"right_children":[2,-1,4,6,-1,-1,-1],"split_conditions":[6.03E1,-5.475678E-2,7.03E1,6.97E1,-4.4580955E-2,6.939518E-2,1.9637775E-2],"split_indices":[17,0,17,17,0,0,0],"split_type":[0,0,0,0,0,0,0],"sum_hessian":[1.441387E2,1.1016629E2,3.3972416E1,3.05582E1,3.4142137E0,2.9077648E1,1.4805534E0],"tree_param":{"num_deleted":"0","num_feature":"18","num_nodes":"7","size_leaf_vector":"1"}},{"base_weights":[-1.535568E-1,-5.467703E-2,3.7123212E-1,6.849534E-1,-5.2976757E-2,2.9379283E-3,7.0330635E-2],"categories":[],"categories_nodes":[],"categories_segments":[],"categories_sizes":[],"default_left":[0,0,0,0,0,0,0],"id":50,"left_children":[1,-1,3,5,-1,-1,-1],"loss_changes":[3.2458355E1,0E0,1.9456505E1,5.874138E-1,0E0,0E0,0E0],"parents":[2147483647,0,0,2,2,3,3],"right_children":[2,-1,4,6,-1,-1,-1],"split_conditions":[4.99E1,-5.467703E-2,6.03E1,5.02E1,-5.2976757E-2,2.9379283E-3,7.0330635E-2],"split_indices":[17,0,17,17,0,0,0],"split_type":[0,0,0,0,0,0,0],"sum_hessian":[1.5531084E2,8.876167E1,6.654917E1,4.953963E1,1.700954E1,1.4199271E0,4.81197E1],"tree_param":{"num_deleted":"0","num_feature":"18","num_nodes":"7","size_leaf_vector":"1"}},{"base_weights":[5.087803E-1,6.896083E-1,-5.411114E-2,6.922732E-2,2.6973171E-2],"categories":[],"categories_nodes":[],"categories_segments":[],"categories_sizes":[],"default_left":[0,0,0,0,0],"id":51,"left_children":[1,3,-1,-1,-1],"loss_changes":[4.7421036E1,5.0308228E-2,0E0,0E0,0E0],"parents":[2147483647,0,0,1,1],"right_children":[2,4,-1,-1,-1],"split_conditions":[5.02E1,4.99E1,-5.411114E-2,6.922732E-2,2.6973171E-2],"split_indices":[17,17,0,0,0],"split_type":[0,0,0,0,0],"sum_hessian":[2.4681638E2,2.1084473E2,3.597165E1,2.088703E2,1.9744248E0],"tree_param":{"num_deleted":"0","num_feature":"18","num_nodes":"5","size_leaf_vector":"1"}},{"base_weights":[-4.6745726E-1,-5.422624E-2,5.7063633E-1,6.611398E-2,-1.7748389E-4],"categories":[],"categories_nodes":[],"categories_segments":[],"categories_sizes":[],"default_left":[0,0,0,0,0],"id":52,"left_children":[1,-1,3,-1,-1],"loss_changes":[9.5467E0,0E0,4.4062948E-1,0E0,0E0],"parents":[2147483647,0,0,2,2],"right_children":[2,-1,4,-1,-1],"split_conditions":[6.97E1,-5.422624E-2,7.97E-1,6.611398E-2,-1.7748389E-4],"split_indices":[17,0,6,0,0],"split_type":[0,0,0,0,0],"sum_hessian":[1.1795312E2,1.1047026E2,7.4828568E0,6.327424E0,1.1554325E0],"tree_param":{"num_deleted":"0","num_feature":"18","num_nodes":"5","size_leaf_vector":"1"}},{"base_weights":[-2.6606035E-1,-5.4195076E-2,5.3251094E-1,6.522215E-1,-4.403842E-2,6.700169E-2,1.7456252E-2],"categories":[],"categories_nodes":[],"categories_segments":[],"categories_sizes":[],"default_left":[0,0,0,0,0,0,0],"id":53,"left_children":[1,-1,3,5,-1,-1,-1],"loss_changes":[2.96572E1,0E0,4.3323374E0,1.493473E-1,0E0,0E0,0E0],"parents":[2147483647,0,0,2,2,3,3],"right_children":[2,-1,4,6,-1,-1,-1],"split_conditions":[6.03E1,-5.4195076E-2,7.03E1,6.97E1,-4.403842E-2,6.700169E-2,1.7456252E-2],"split_indices":[17,0,17,17,0,0,0],"split_type":[0,0,0,0,0,0,0],"sum_hessian":[1.3230087E2,9.856871E1,3.3732166E1,3.032982E1,3.4023461E0,2.8852211E1,1.4776112E0],"tree_param":{"num_deleted":"0","num_feature":"18","num_nodes":"7","size_leaf_vector":"1"}},{"base_weights":[-1.6112849E-1,-5.232574E-1,1.4956349E-1,-5.306895E-1,-4.386041E-3,2.3488347E-1,-3.131853E-1,-5.384132E-2,-1.9482398E-2,-1.880019E-1,3.038996E-1,2.628576E-1,-4.963299E-2,-3.9774477E-1,1.9562571E-1,1.261806E-1,3.7663248E-1,5.6394623E-3,3.800537E-2,-2.1004358E-3,-4.6326514E-2,-1.1053445E-2,3.886076E-2,-1.3853985E-1,3.91848E-1,4.151549E-1,-1.2858795E-1,-4.1454837E-2,4.0954957E-3,-5.1502935E-3,5.2878797E-2,4.372814E-2,-1.0675238E-2,2.2595506E-2,-3.480416E-2],"categories":[],"categories_nodes":[],"categories_segments":[],"categories_sizes":[],"default_left":[0,0,0,0,0,0,0,0,0,0,0,0,0,0,0,0,0,0,0,0,0,0,0,0,0,0,0,0,0,0,0,0,0,0,0],"id":54,"left_children":[1,3,5,7,-1,9,11,-1,-1,13,15,17,-1,19,21,23,25,-1,-1,-1,-1,-1,-1,27,29,31,33,-1,-1,-1,-1,-1,-1,-1,-1],"loss_changes":[1.6497799E1,2.1762466E-1,3.2054515E0,6.7588806E-2,0E0,2.0285728E0,1.4784688E0,0E0,0E0,8.900895E-1,7.08035E-1,6.896943E-2,0E0,1.5951324E-1,2.9339036E-1,1.3538585E0,8.5082865E-1,0E0,0E0,0E0,0E0,0E0,0E0,5.121365E-1,6.030388E-1,4.890542E-1,3.6390662E-1,0E0,0E0,0E0,0E0,0E0,0E0,0E0,0E0],"parents":[2147483647,0,0,1,1,2,2,3,3,5,5,6,6,9,9,10,10,11,11,13,13,14,14,15,15,16,16,23,23,24,24,25,25,26,26],"right_children":[2,4,6,8,-1,10,12,-1,-1,14,16,18,-1,20,22,24,26,-1,-1,-1,-1,-1,-1,28,30,32,34,-1,-1,-1,-1,-1,-1,-1,-1],"split_conditions":[6.71E1,8.28E-1,9.19E1,7.69E-1,-4.386041E-3,6.11E-1,7.99E-1,-5.384132E-2,-1.9482398E-2,6.43E-1,7.5E1,5.3E1,-4.963299E-2,4.26E-1,5.69E-1,7.7E-1,8.68E-1,5.6394623E-3,3.800537E-2,-2.1004358E-3,-4.6326514E-2,-1.1053445E-2,3.886076E-2,4.68E-1,5.75E-1,8.03E-1,6.18E-1,-4.1454837E-2,4.0954957E-3,-5.1502935E-3,5.2878797E-2,4.372814E-2,-1.0675238E-2,2.2595506E-2,-3.480416E-2],"split_indices":[13,4,13,16,0,4,4,0,0,5,13,14,0,4,8,4,5,0,0,0,0,0,0,5,6,16,7,0,0,0,0,0,0,0,0],"split_type":[0,0,0,0,0,0,0,0,0,0,0,0,0,0,0,0,0,0,0,0,0,0,0,0,0,0,0,0,0,0,0,0,0,0,0],"sum_hessian":[1.4493779E2,6.661275E1,7.832505E1,6.549045E1,1.1222938E0,6.6547646E1,1.1777402E1,6.3428757E1,2.0616937E0,9.09506E0,5.7452587E1,2.736154E0,9.041247E0,5.8563733E0,3.2386868E0,1.7478832E1,3.9973755E1,1.5270927E0,1.2090616E0,1.0632558E0,4.7931175E0,1.4173425E0,1.8213441E0,8.994707E0,8.484125E0,3.730738E1,2.666372E0,3.0284076E0,5.9663E0,2.149358E0,6.3347673E0,3.59456E1,1.3617826E0,1.008096E0,1.6582761E0],"tree_param":{"num_deleted":"0","num_feature":"18","num_nodes":"35","size_leaf_vector":"1"}},{"base_weights":[4.908235E-1,6.6634667E-1,-5.354113E-2,6.6956006E-2,1.3270924E-2],"categories":[],"categories_nodes":[],"categories_segments":[],"categories_sizes":[],"default_left":[0,0,0,0,0],"id":55,"left_children":[1,3,-1,-1,-1],"loss_changes":[4.3524643E1,2.62825E-1,0E0,0E0,0E0],"parents":[2147483647,0,0,1,1],"right_children":[2,4,-1,-1,-1],"split_conditions":[5.02E1,4.99E1,-5.354113E-2,6.6956006E-2,1.3270924E-2],"split_indices":[17,17,0,0,0],"split_type":[0,0,0,0,0],"sum_hessian":[2.386511E2,2.0409428E2,3.45568E1,2.0261949E2,1.4747977E0],"tree_param":{"num_deleted":"0","num_feature":"18","num_nodes":"5","size_leaf_vector":"1"}},{"base_weights":[-4.6146762E-1,-5.3762276E-2,5.45755E-1,9.837179E-3,6.0351152E-2],"categories":[],"categories_nodes":[],"categories_segments":[],"categories_sizes":[],"default_left":[0,0,0,0,0],"id":56,"left_children":[1,-1,3,-1,-1],"loss_changes":[8.70343E0,0E0,1.5260029E-1,0E0,0E0],"parents":[2147483647,0,0,2,2],"right_children":[2,-1,4,-1,-1],"split_conditions":[6.97E1,-5.3762276E-2,7.03E1,9.837179E-3,6.0351152E-2],"split_indices":[17,0,17,0,0],"split_type":[0,0,0,0,0],"sum_hessian":[1.0864085E2,1.0143749E2,7.2033567E0,1.1326939E0,6.0706625E0],"tree_param":{"num_deleted":"0","num_feature":"18","num_nodes":"5","size_leaf_vector":"1"}},{"base_weights":[-2.6877153E-1,-4.7304595E-1,3.4244898E-1,-5.185169E-1,1.1367523E-2,-2.2224967E-1,3.9179143E-1,-5.3007722E-2,-1.24085814E-1,-2.0867203E-1,3.5399282E-1,-3.2743544E-3,-2.9702399E-2,4.6167153E-1,2.9549612E-2,-3.3566818E-2,1.927306E-2,-4.266403E-2,2.5887242E-2,1.2904136E-2,4.199941E-2,-1.0904684E-2,4.9939412E-1,3.61438E-2,-3.0700532E-1,5.2852964E-1,-5.2353092E-3,-5.1725004E-3,-3.95439E-2,1.5473715E-2,5.5150844E-2],"categories":[],"categories_nodes":[],"categories_segments":[],"categories_sizes":[],"default_left":[0,0,0,0,0,0,0,0,0,0,0,0,0,0,0,0,0,0,0,0,0,0,0,0,0,0,0,0,0,0,0],"id":57,"left_children":[1,3,5,7,9,11,13,-1,15,17,19,-1,-1,21,23,-1,-1,-1,-1,-1,-1,-1,25,-1,27,29,-1,-1,-1,-1,-1],"loss_changes":[1.5754229E1,2.0768356E0,9.7485733E-1,3.2623863E-1,7.559038E-1,3.5595775E-2,7.372403E-1,0E0,3.1631085E-1,7.3596066E-1,3.8361847E-3,0E0,0E0,5.883322E-1,7.661154E-1,0E0,0E0,0E0,0E0,0E0,0E0,0E0,4.0447617E-1,0E0,5.7496846E-2,1.0666704E-1,0E0,0E0,0E0,0E0,0E0],"parents":[2147483647,0,0,1,1,2,2,3,3,4,4,5,5,6,6,8,8,9,9,10,10,13,13,14,14,22,22,24,24,25,25],"right_children":[2,4,6,8,10,12,14,-1,16,18,20,-1,-1,22,24,-1,-1,-1,-1,-1,-1,-1,26,-1,28,30,-1,-1,-1,-1,-1],"split_conditions":[8.51E1,8.47E-1,4.97E-1,7.92E-1,7.56E-1,4.73E-1,9.27E-1,-5.3007722E-2,6.64E-1,8.14E-1,7.98E1,-3.2743544E-3,-2.9702399E-2,7.39E-1,8.13E-1,-3.3566818E-2,1.927306E-2,-4.266403E-2,2.5887242E-2,1.2904136E-2,4.199941E-2,-1.0904684E-2,6.25E-1,3.61438E-2,5E-1,5.48E-1,-5.2353092E-3,-5.1725004E-3,-3.95439E-2,1.5473715E-2,5.5150844E-2],"split_indices":[13,4,5,8,5,9,4,0,7,3,13,0,0,4,5,0,0,0,0,0,0,0,15,0,9,7,0,0,0,0,0],"split_type":[0,0,0,0,0,0,0,0,0,0,0,0,0,0,0,0,0,0,0,0,0,0,0,0,0,0,0,0,0,0,0],"sum_hessian":[1.2388102E2,9.301933E1,3.0861687E1,8.49727E1,8.046627E0,2.1983612E0,2.8663326E1,8.2219055E1,2.7536466E0,5.137928E0,2.9086995E0,1.0288267E0,1.1695346E0,2.3797974E1,4.865353E0,1.6153495E0,1.1382971E0,3.5639222E0,1.5740057E0,1.3301831E0,1.5785165E0,1.3582196E0,2.2439753E1,2.4124343E0,2.4529188E0,2.1354202E1,1.0855501E0,1.0388848E0,1.4140339E0,1.6846215E0,1.9669582E1],"tree_param":{"num_deleted":"0","num_feature":"18","num_nodes":"31","size_leaf_vector":"1"}},{"base_weights":[-1.4599232E-1,-5.365752E-2,3.4047318E-1,6.42244E-1,-5.187437E-2,3.5170277E-3,6.609188E-2],"categories":[],"categories_nodes":[],"categories_segments":[],"categories_sizes":[],"default_left":[0,0,0,0,0,0,0],"id":58,"left_children":[1,-1,3,5,-1,-1,-1],"loss_changes":[2.5652765E1,0E0,1.5970495E1,4.878254E-1,0E0,0E0,0E0],"parents":[2147483647,0,0,2,2,3,3],"right_children":[2,-1,4,6,-1,-1,-1],"split_conditions":[4.99E1,-5.365752E-2,6.03E1,5.02E1,-5.187437E-2,3.5170277E-3,6.609188E-2],"split_indices":[17,0,17,17,0,0,0],"split_type":[0,0,0,0,0,0,0],"sum_hessian":[1.3304942E2,7.374034E1,5.9309086E1,4.408E1,1.5229083E1,1.4015704E0,4.2678432E1],"tree_param":{"num_deleted":"0","num_feature":"18","num_nodes":"7","size_leaf_vector":"1"}},{"base_weights":[4.8231062E-1,6.1548126E-1,-2.632139E-1,6.2582135E-1,7.034386E-2,4.84036E-2,-4.9318144E-1,6.330287E-2,2.1487564E-1,2.979329E-1,-3.044242E-2,3.156788E-1,-1.9345888E-1,-5.1627766E-2,-9.41294E-3,4.0330987E-2,-1.3691194E-2,3.618214E-2,1.0460558E-2,4.0002623E-1,-8.789272E-3,-4.0103382E-1,9.7278655E-2,4.8475765E-2,5.059213E-3,-4.7691103E-2,-3.6822003E-3,3.4065887E-2,-3.0073095E-2],"categories":[],"categories_nodes":[],"categories_segments":[],"categories_sizes":[],"default_left":[0,0,0,0,0,0,0,0,0,0,0,0,0,0,0,0,0,0,0,0,0,0,0,0,0,0,0,0,0],"id":59,"left_children":[1,3,5,7,9,11,13,-1,15,17,-1,19,21,-1,-1,-1,-1,-1,-1,23,-1,25,27,-1,-1,-1,-1,-1,-1],"loss_changes":[2.233564E1,1.025795E0,2.4997003E0,4.1526031E-1,4.88127E-1,1.0682665E0,1.3544083E-1,0E0,3.6823806E-1,4.200846E-3,0E0,3.000427E-1,5.7004297E-1,0E0,0E0,0E0,0E0,0E0,0E0,1.713742E-1,0E0,1.2971002E-1,5.3545934E-1,0E0,0E0,0E0,0E0,0E0,0E0],"parents":[2147483647,0,0,1,1,2,2,3,3,4,4,5,5,6,6,8,8,9,9,11,11,12,12,19,19,21,21,22,22],"right_children":[2,4,6,8,10,12,14,-1,16,18,-1,20,22,-1,-1,-1,-1,-1,-1,24,-1,26,28,-1,-1,-1,-1,-1,-1],"split_conditions":[7.63E1,8.38E-1,7.58E-1,8.5E-1,6.76E-1,7.07E-1,3E0,6.330287E-2,6.43E-1,4.84E-1,-3.044242E-2,5.55E-1,8.43E-1,-5.1627766E-2,-9.41294E-3,4.0330987E-2,-1.3691194E-2,3.618214E-2,1.0460558E-2,6.5E-1,-8.789272E-3,6.04E-1,7.37E-1,4.8475765E-2,5.059213E-3,-4.7691103E-2,-3.6822003E-3,3.4065887E-2,-3.0073095E-2],"split_indices":[13,4,4,3,3,3,11,0,5,8,0,9,3,0,0,0,0,0,0,6,0,15,5,0,0,0,0,0,0],"split_type":[0,0,0,0,0,0,0,0,0,0,0,0,0,0,0,0,0,0,0,0,0,0,0,0,0,0,0,0,0],"sum_hessian":[2.2234003E2,1.8879128E2,3.354874E1,1.8513171E2,3.6595676E0,1.4580691E1,1.8968048E1,1.8140965E2,3.7220645E0,2.404428E0,1.2551397E0,6.781478E0,7.7992134E0,1.7652594E1,1.3154533E0,2.3284023E0,1.3936621E0,1.152136E0,1.2522919E0,5.6164174E0,1.1650604E0,4.3290663E0,3.470147E0,4.2086353E0,1.4077821E0,3.3265948E0,1.0024713E0,2.2427897E0,1.2273571E0],"tree_param":{"num_deleted":"0","num_feature":"18","num_nodes":"29","size_leaf_vector":"1"}},{"base_weights":[-4.5702758E-1,-5.334097E-2,5.261662E-1,1.6498635E-2,6.12481E-2],"categories":[],"categories_nodes":[],"categories_segments":[],"categories_sizes":[],"default_left":[0,0,0,0,0],"id":60,"left_children":[1,-1,3,-1,-1],"loss_changes":[8.040283E0,0E0,1.4685178E-1,0E0,0E0],"parents":[2147483647,0,0,2,2],"right_children":[2,-1,4,-1,-1],"split_conditions":[6.97E1,-5.334097E-2,5.82E-1,1.6498635E-2,6.12481E-2],"split_indices":[17,0,8,0,0],"split_type":[0,0,0,0,0],"sum_hessian":[1.0232603E2,9.53741E1,6.9519277E0,1.9024925E0,5.049435E0],"tree_param":{"num_deleted":"0","num_feature":"18","num_nodes":"5","size_leaf_vector":"1"}},{"base_weights":[-2.5348127E-1,-5.3336214E-2,5.148804E-1,6.361693E-2,-3.27516E-1,-4.5381248E-2,6.6982615E-3],"categories":[],"categories_nodes":[],"categories_segments":[],"categories_sizes":[],"default_left":[0,0,0,0,0,0,0],"id":61,"left_children":[1,-1,3,-1,5,-1,-1],"loss_changes":[2.563491E1,0E0,3.4774418E0,0E0,2.6392537E-1,0E0,0E0],"parents":[2147483647,0,0,2,2,4,4],"right_children":[2,-1,4,-1,6,-1,-1],"split_conditions":[6.03E1,-5.3336214E-2,6.97E1,6.361693E-2,8.77E-1,-4.5381248E-2,6.6982615E-3],"split_indices":[17,0,17,0,16,0,0],"split_type":[0,0,0,0,0,0,0],"sum_hessian":[1.1692757E2,8.5932076E1,3.0995487E1,2.730841E1,3.6870759E0,2.6790428E0,1.008033E0],"tree_param":{"num_deleted":"0","num_feature":"18","num_nodes":"7","size_leaf_vector":"1"}},{"base_weights":[-1.3371894E-1,-5.3244412E-2,3.4953645E-1,6.2623274E-1,-5.1247615E-2,3.6626996E-3,6.441875E-2],"categories":[],"categories_nodes":[],"categories_segments":[],"categories_sizes":[],"default_left":[0,0,0,0,0,0,0],"id":62,"left_children":[1,-1,3,5,-1,-1,-1],"loss_changes":[2.5081528E1,0E0,1.4396507E1,4.5409203E-1,0E0,0E0,0E0],"parents":[2147483647,0,0,2,2,3,3],"right_children":[2,-1,4,6,-1,-1,-1],"split_conditions":[4.99E1,-5.3244412E-2,6.03E1,5.02E1,-5.1247615E-2,3.6626996E-3,6.441875E-2],"split_indices":[17,0,17,17,0,0,0],"split_type":[0,0,0,0,0,0,0],"sum_hessian":[1.2820193E2,7.018872E1,5.8013218E1,4.4123573E1,1.3889645E1,1.3937836E0,4.272979E1],"tree_param":{"num_deleted":"0","num_feature":"18","num_nodes":"7","size_leaf_vector":"1"}},{"base_weights":[4.6905077E-1,6.304313E-1,-5.2557465E-2,6.3362114E-2,2.2289576E-2],"categories":[],"categories_nodes":[],"categories_segments":[],"categories_sizes":[],"default_left":[0,0,0,0,0],"id":63,"left_children":[1,3,-1,-1,-1],"loss_changes":[3.3405212E1,8.982086E-2,0E0,0E0,0E0],"parents":[2147483647,0,0,1,1],"right_children":[2,4,-1,-1,-1],"split_conditions":[5.02E1,4.99E1,-5.2557465E-2,6.3362114E-2,2.2289576E-2],"split_indices":[17,17,0,0,0],"split_type":[0,0,0,0,0],"sum_hessian":[2.0505077E2,1.7674034E2,2.831042E1,1.7481729E2,1.923052E0],"tree_param":{"num_deleted":"0","num_feature":"18","num_nodes":"5","size_leaf_vector":"1"}},{"base_weights":[-4.4545868E-1,-5.2919727E-2,5.10526E-1,6.042061E-2,-3.0530354E-3],"categories":[],"categories_nodes":[],"categories_segments":[],"categories_sizes":[],"default_left":[0,0,0,0,0],"id":64,"left_children":[1,-1,3,-1,-1],"loss_changes":[7.821272E0,0E0,4.293077E-1,0E0,0E0],"parents":[2147483647,0,0,2,2],"right_children":[2,-1,4,-1,-1],"split_conditions":[6.97E1,-5.2919727E-2,7.97E-1,6.042061E-2,-3.0530354E-3],"split_indices":[17,0,6,0,0],"split_type":[0,0,0,0,0],"sum_hessian":[9.3326515E1,8.622054E1,7.1059732E0,5.9577203E0,1.148253E0],"tree_param":{"num_deleted":"0","num_feature":"18","num_nodes":"5","size_leaf_vector":"1"}},{"base_weights":[-2.6225555E-1,-5.2914828E-2,5.03919E-1,6.2039305E-2,-4.1143805E-2],"categories":[],"categories_nodes":[],"categories_segments":[],"categories_sizes":[],"default_left":[0,0,0,0,0],"id":65,"left_children":[1,-1,3,-1,-1],"loss_changes":[2.2170002E1,0E0,3.2602143E0,0E0,0E0],"parents":[2147483647,0,0,2,2],"right_children":[2,-1,4,-1,-1],"split_conditions":[6.03E1,-5.2914828E-2,7.03E1,6.2039305E-2,-4.1143805E-2],"split_indices":[17,0,17,0,0],"split_type":[0,0,0,0,0],"sum_hessian":[1.06113976E2,7.892889E1,2.7185085E1,2.4402273E1,2.7828126E0],"tree_param":{"num_deleted":"0","num_feature":"18","num_nodes":"5","size_leaf_vector":"1"}},{"base_weights":[-1.5218097E-1,-5.2806508E-2,3.1845433E-1,6.054761E-1,-5.064822E-2,3.6874395E-3,6.251436E-2],"categories":[],"categories_nodes":[],"categories_segments":[],"categories_sizes":[],"default_left":[0,0,0,0,0,0,0],"id":66,"left_children":[1,-1,3,5,-1,-1,-1],"loss_changes":[2.1043648E1,0E0,1.2860901E1,4.2192936E-1,0E0,0E0,0E0],"parents":[2147483647,0,0,2,2,3,3],"right_children":[2,-1,4,6,-1,-1,-1],"split_conditions":[4.99E1,-5.2806508E-2,6.03E1,5.02E1,-5.064822E-2,3.6874395E-3,6.251436E-2],"split_indices":[17,0,17,17,0,0,0],"split_type":[0,0,0,0,0,0,0],"sum_hessian":[1.17004364E2,6.4982506E1,5.202186E1,3.8791195E1,1.3230663E1,1.3930113E0,3.7398186E1],"tree_param":{"num_deleted":"0","num_feature":"18","num_nodes":"7","size_leaf_vector":"1"}},{"base_weights":[4.446093E-1,6.1487687E-1,-5.218448E-2,6.1835308E-2,2.0963332E-2],"categories":[],"categories_nodes":[],"categories_segments":[],"categories_sizes":[],"default_left":[0,0,0,0,0],"id":67,"left_children":[1,3,-1,-1,-1],"loss_changes":[3.1963757E1,1.0133743E-1,0E0,0E0,0E0],"parents":[2147483647,0,0,1,1],"right_children":[2,4,-1,-1,-1],"split_conditions":[5.02E1,4.99E1,-5.218448E-2,6.1835308E-2,2.0963332E-2],"split_indices":[17,17,0,0,0],"split_type":[0,0,0,0,0],"sum_hessian":[1.9129279E2,1.6294867E2,2.8344122E1,1.6104135E2,1.907309E0],"tree_param":{"num_deleted":"0","num_feature":"18","num_nodes":"5","size_leaf_vector":"1"}},{"base_weights":[-4.3543184E-1,-5.2536827E-2,5.002041E-1,5.8997463E-2,-2.959779E-3],"categories":[],"categories_nodes":[],"categories_segments":[],"categories_sizes":[],"default_left":[0,0,0,0,0],"id":68,"left_children":[1,-1,3,-1,-1],"loss_changes":[7.558096E0,0E0,4.034171E-1,0E0,0E0],"parents":[2147483647,0,0,2,2],"right_children":[2,-1,4,-1,-1],"split_conditions":[6.97E1,-5.2536827E-2,7.97E-1,5.8997463E-2,-2.959779E-3],"split_indices":[17,0,6,0,0],"split_type":[0,0,0,0,0],"sum_hessian":[8.56964E1,7.858139E1,7.115013E0,5.986991E0,1.1280227E0],"tree_param":{"num_deleted":"0","num_feature":"18","num_nodes":"5","size_leaf_vector":"1"}},{"base_weights":[-2.470214E-1,-5.251378E-2,4.8233798E-1,5.8066976E-1,-3.9220475E-2,6.006821E-2,1.4565838E-2],"categories":[],"categories_nodes":[],"categories_segments":[],"categories_sizes":[],"default_left":[0,0,0,0,0,0,0],"id":69,"left_children":[1,-1,3,5,-1,-1,-1],"loss_changes":[2.0371109E1,0E0,2.6269612E0,1.3434792E-1,0E0,0E0,0E0],"parents":[2147483647,0,0,2,2,3,3],"right_children":[2,-1,4,6,-1,-1,-1],"split_conditions":[6.03E1,-5.251378E-2,7.03E1,6.97E1,-3.9220475E-2,6.006821E-2,1.4565838E-2],"split_indices":[17,0,17,17,0,0,0],"split_type":[0,0,0,0,0,0,0],"sum_hessian":[9.817737E1,7.127795E1,2.6899422E1,2.4482672E1,2.4167497E0,2.304181E1,1.4408617E0],"tree_param":{"num_deleted":"0","num_feature":"18","num_nodes":"7","size_leaf_vector":"1"}},{"base_weights":[-1.4474407E-1,-5.1248413E-1,1.4663315E-1,-5.207884E-2,-6.2735863E-3,2.2650306E-1,-2.4219628E-1,3.4552496E-2,3.528854E-1,2.0638694E-1,-4.248707E-1,-3.8552174E-1,1.7761043E-1,4.0590712E-1,-1.212368E-1,-1.06230965E-2,3.9005708E-2,-8.922443E-3,-4.611423E-2,-9.30216E-3,-4.2899676E-2,3.4667316E-1,-6.312568E-2,4.222238E-1,2.9101798E-3,1.8581118E-2,-3.3739164E-2,-1.20295165E-2,4.235946E-2,1.9794473E-2,-3.9466884E-2,4.2643114E-3,4.3838076E-2],"categories":[],"categories_nodes":[],"categories_segments":[],"categories_sizes":[],"default_left":[0,0,0,0,0,0,0,0,0,0,0,0,0,0,0,0,0,0,0,0,0,0,0,0,0,0,0,0,0,0,0,0,0],"id":70,"left_children":[1,3,5,-1,-1,7,9,11,13,15,17,19,21,23,25,-1,-1,-1,-1,-1,-1,27,29,31,-1,-1,-1,-1,-1,-1,-1,-1,-1],"loss_changes":[1.1701073E1,1.4729881E-1,1.9589779E0,0E0,0E0,1.2342782E0,9.834614E-1,1.3609744E0,8.25341E-1,2.6171762E-1,5.740714E-2,3.3584893E-2,7.027241E-1,1.5985298E-1,3.199006E-1,0E0,0E0,0E0,0E0,0E0,0E0,4.0947855E-1,7.4869835E-1,1.4543581E-1,0E0,0E0,0E0,0E0,0E0,0E0,0E0,0E0,0E0],"parents":[2147483647,0,0,1,1,2,2,5,5,6,6,7,7,8,8,9,9,10,10,11,11,12,12,13,13,14,14,21,21,22,22,23,23],"right_children":[2,4,6,-1,-1,8,10,12,14,16,18,20,22,24,26,-1,-1,-1,-1,-1,-1,28,30,32,-1,-1,-1,-1,-1,-1,-1,-1,-1],"split_conditions":[6.71E1,7.88E-1,9.08E1,-5.207884E-2,-6.2735863E-3,7.63E1,6.79E-1,4.54E-1,8.06E-1,2.99E-1,4.5E-1,2.63E-1,3.88E-1,8.86E-1,4.9E-1,-1.06230965E-2,3.9005708E-2,-8.922443E-3,-4.611423E-2,-9.30216E-3,-4.2899676E-2,3.93E-1,1E0,5.83E-1,2.9101798E-3,1.8581118E-2,-3.3739164E-2,-1.20295165E-2,4.235946E-2,1.9794473E-2,-3.9466884E-2,4.2643114E-3,4.3838076E-2],"split_indices":[13,8,13,0,0,13,5,5,7,15,8,9,15,3,6,0,0,0,0,0,0,6,12,3,0,0,0,0,0,0,0,0,0],"split_type":[0,0,0,0,0,0,0,0,0,0,0,0,0,0,0,0,0,0,0,0,0,0,0,0,0,0,0,0,0,0,0,0,0],"sum_hessian":[1.0750032E2,4.718741E1,6.0312912E1,4.6176834E1,1.0105722E0,5.038147E1,9.931443E0,2.0507658E1,2.987381E1,2.836414E0,7.095029E0,4.7791967E0,1.5728461E1,2.6998417E1,2.875393E0,1.205759E0,1.6306552E0,1.0293772E0,6.065652E0,1.0246954E0,3.7545013E0,8.981166E0,6.747295E0,2.5762302E1,1.2361143E0,1.2459294E0,1.6294636E0,1.1904442E0,7.7907214E0,4.000276E0,2.7470188E0,1.2003906E0,2.4561913E1],"tree_param":{"num_deleted":"0","num_feature":"18","num_nodes":"33","size_leaf_vector":"1"}},{"base_weights":[4.4151717E-1,5.4693097E-1,-3.7514615E-1,5.844265E-1,2.4046727E-1,3.6232736E-2,-4.332692E-1,5.903862E-1,6.527421E-3,3.2022838E-2,4.2466486E-1,-4.6660945E-1,4.0763603E-3,5.9360255E-2,2.3897922E-2,-2.6735884E-1,1.7830613E-1,4.680557E-1,5.14748E-3,-1.2483494E-1,-5.02959E-2,9.2256935E-3,-4.3538723E-2,3.5428357E-1,-9.325942E-2,5.1428642E-2,1.8463304E-2,-2.83705E-2,1.04826195E-2,4.078292E-2,8.437383E-3,-3.1864267E-2,1.9620698E-2],"categories":[],"categories_nodes":[],"categories_segments":[],"categories_sizes":[],"default_left":[0,0,0,0,0,0,0,0,0,0,0,0,0,0,0,0,0,0,0,0,0,0,0,0,0,0,0,0,0,0,0,0,0],"id":71,"left_children":[1,3,5,7,9,-1,11,13,-1,15,17,19,-1,-1,-1,21,23,25,-1,27,-1,-1,-1,29,31,-1,-1,-1,-1,-1,-1,-1,-1],"loss_changes":[1.566637E1,1.6919746E0,1.062501E0,3.9891815E-1,7.19113E-1,0E0,3.356979E-1,1.5995026E-2,0E0,4.8711023E-1,1.3863766E-1,1.70784E-1,0E0,0E0,0E0,2.6335815E-1,3.8383627E-1,2.1387696E-2,0E0,1.4421566E-1,0E0,0E0,0E0,3.297472E-2,3.024721E-1,0E0,0E0,0E0,0E0,0E0,0E0,0E0,0E0],"parents":[2147483647,0,0,1,1,2,2,3,3,4,4,6,6,7,7,9,9,10,10,11,11,15,15,16,16,17,17,19,19,23,23,24,24],"right_children":[2,4,6,8,10,-1,12,14,-1,16,18,20,-1,-1,-1,22,24,26,-1,28,-1,-1,-1,30,32,-1,-1,-1,-1,-1,-1,-1,-1],"split_conditions":[7.94E1,7.25E1,5.77E-1,8.38E-1,4.57E-1,3.6232736E-2,2E0,8.5E-1,6.527421E-3,2E0,1.5E1,3.47E-1,4.0763603E-3,5.9360255E-2,2.3897922E-2,4.94E-1,5.52E-1,7.6E-1,5.14748E-3,2E0,-5.02959E-2,9.2256935E-3,-4.3538723E-2,4.65E-1,6.25E-1,5.1428642E-2,1.8463304E-2,-2.83705E-2,1.04826195E-2,4.078292E-2,8.437383E-3,-3.1864267E-2,1.9620698E-2],"split_indices":[13,13,4,4,15,0,12,3,0,0,2,16,0,0,0,6,5,3,0,11,0,0,0,5,8,0,0,0,0,0,0,0,0],"split_type":[0,0,0,0,0,0,0,0,0,0,0,0,0,0,0,0,0,0,0,0,0,0,0,0,0,0,0,0,0,0,0,0,0],"sum_hessian":[1.7859837E2,1.5847316E2,2.012522E1,1.4038962E2,1.808354E1,1.0879064E0,1.9037313E1,1.3866064E2,1.7289767E0,9.034094E0,9.049445E0,1.7800974E1,1.2363392E0,1.3672005E2,1.9405869E0,2.693641E0,6.3404527E0,7.879136E0,1.1703098E0,2.1375062E0,1.5663467E1,1.0013938E0,1.6922472E0,3.6625097E0,2.6779432E0,6.0738406E0,1.8052952E0,1.1243839E0,1.0131223E0,2.6298141E0,1.0326954E0,1.4489634E0,1.2289797E0],"tree_param":{"num_deleted":"0","num_feature":"18","num_nodes":"33","size_leaf_vector":"1"}},{"base_weights":[-4.3913063E-1,-5.2194115E-2,4.690344E-1,5.6814093E-2,-3.362671E-3],"categories":[],"categories_nodes":[],"categories_segments":[],"categories_sizes":[],"default_left":[0,0,0,0,0],"id":72,"left_children":[1,-1,3,-1,-1],"loss_changes":[6.202486E0,0E0,3.7512493E-1,0E0,0E0],"parents":[2147483647,0,0,2,2],"right_children":[2,-1,4,-1,-1],"split_conditions":[6.97E1,-5.2194115E-2,7.97E-1,5.6814093E-2,-3.362671E-3],"split_indices":[17,0,6,0,0],"split_type":[0,0,0,0,0],"sum_hessian":[7.8218575E1,7.2072014E1,6.146562E0,5.025458E0,1.121104E0],"tree_param":{"num_deleted":"0","num_feature":"18","num_nodes":"5","size_leaf_vector":"1"}},{"base_weights":[-2.5371146E-1,-5.2181013E-2,4.475293E-1,5.6564623E-1,-4.0374007E-2,5.871215E-2,1.4033282E-2],"categories":[],"categories_nodes":[],"categories_segments":[],"categories_sizes":[],"default_left":[0,0,0,0,0,0,0],"id":73,"left_children":[1,-1,3,5,-1,-1,-1],"loss_changes":[1.7540455E1,0E0,2.842597E0,1.2994766E-1,0E0,0E0,0E0],"parents":[2147483647,0,0,2,2,3,3],"right_children":[2,-1,4,6,-1,-1,-1],"split_conditions":[6.03E1,-5.2181013E-2,7.03E1,6.97E1,-4.0374007E-2,5.871215E-2,1.4033282E-2],"split_indices":[17,0,17,17,0,0,0],"split_type":[0,0,0,0,0,0,0],"sum_hessian":[9.105731E1,6.605791E1,2.4999407E1,2.2247946E1,2.7514625E0,2.0816422E1,1.431523E0],"tree_param":{"num_deleted":"0","num_feature":"18","num_nodes":"7","size_leaf_vector":"1"}},{"base_weights":[-1.2440707E-1,-5.2053284E-2,3.2248196E-1,6.015688E-2,-4.9660828E-2],"categories":[],"categories_nodes":[],"categories_segments":[],"categories_sizes":[],"default_left":[0,0,0,0,0],"id":74,"left_children":[1,-1,3,-1,-1],"loss_changes":[1.8227749E1,0E0,1.13984E1,0E0,0E0],"parents":[2147483647,0,0,2,2],"right_children":[2,-1,4,-1,-1],"split_conditions":[4.99E1,-5.2053284E-2,6.03E1,6.015688E-2,-4.9660828E-2],"split_indices":[17,0,17,0,0],"split_type":[0,0,0,0,0],"sum_hessian":[1.0101928E2,5.346379E1,4.7555492E1,3.566798E1,1.1887511E1],"tree_param":{"num_deleted":"0","num_feature":"18","num_nodes":"5","size_leaf_vector":"1"}},{"base_weights":[4.364611E-1,5.900851E-1,-5.1220834E-2,5.940607E-2,1.8389925E-2],"categories":[],"categories_nodes":[],"categories_segments":[],"categories_sizes":[],"default_left":[0,0,0,0,0],"id":75,"left_children":[1,3,-1,-1,-1],"loss_changes":[2.4854229E1,1.2563324E-1,0E0,0E0,0E0],"parents":[2147483647,0,0,1,1],"right_children":[2,4,-1,-1,-1],"split_conditions":[5.02E1,4.99E1,-5.1220834E-2,5.940607E-2,1.8389925E-2],"split_indices":[17,17,0,0,0],"split_type":[0,0,0,0,0],"sum_hessian":[1.6746616E2,1.4445212E2,2.301405E1,1.4259392E2,1.8581965E0],"tree_param":{"num_deleted":"0","num_feature":"18","num_nodes":"5","size_leaf_vector":"1"}},{"base_weights":[-4.3469876E-1,-4.9798933E-1,3.1765816E-1,-5.1328963E-1,-7.474397E-2,4.9045507E-2,-2.4817243E-2,-5.1872462E-2,-1.0101979E-2,-2.9972343E-2,1.9298766E-2,8.578994E-3,-1.21117E-2],"categories":[],"categories_nodes":[],"categories_segments":[],"categories_sizes":[],"default_left":[0,0,0,0,0,0,0,0,0,0,0,0,0],"id":76,"left_children":[1,3,5,7,9,-1,11,-1,-1,-1,-1,-1,-1],"loss_changes":[3.6332035E0,4.0007782E-1,3.8341928E-1,9.362602E-2,2.7062458E-1,0E0,4.29372E-2,0E0,0E0,0E0,0E0,0E0,0E0],"parents":[2147483647,0,0,1,1,2,2,3,3,4,4,6,6],"right_children":[2,4,6,8,10,-1,12,-1,-1,-1,-1,-1,-1],"split_conditions":[9.27E-1,8.63E-1,1.67E-1,8.91E-1,8.98E-1,4.9045507E-2,5.1E1,-5.1872462E-2,-1.0101979E-2,-2.9972343E-2,1.9298766E-2,8.578994E-3,-1.21117E-2],"split_indices":[4,7,15,5,3,0,14,0,0,0,0,0,0],"split_type":[0,0,0,0,0,0,0,0,0,0,0,0,0],"sum_hessian":[7.197829E1,6.6704956E1,5.2733316E0,6.417238E1,2.5325773E0,3.2177293E0,2.0556026E0,6.3082546E1,1.0898327E0,1.3112334E0,1.2213438E0,1.0075246E0,1.048078E0],"tree_param":{"num_deleted":"0","num_feature":"18","num_nodes":"13","size_leaf_vector":"1"}},{"base_weights":[-2.4154007E-1,-5.1832158E-2,4.4315478E-1,5.7543367E-2,-3.1506836E-1,3.4305048E-3,-4.3084018E-2],"categories":[],"categories_nodes":[],"categories_segments":[],"categories_sizes":[],"default_left":[0,0,0,0,0,0,0],"id":77,"left_children":[1,-1,3,-1,5,-1,-1],"loss_changes":[1.6438225E1,0E0,2.704792E0,0E0,1.9208577E-1,0E0,0E0],"parents":[2147483647,0,0,2,2,4,4],"right_children":[2,-1,4,-1,6,-1,-1],"split_conditions":[6.03E1,-5.1832158E-2,6.97E1,5.7543367E-2,6.02E-1,3.4305048E-3,-4.3084018E-2],"split_indices":[17,0,17,0,10,0,0],"split_type":[0,0,0,0,0,0,0],"sum_hessian":[8.452821E1,6.0367996E1,2.4160212E1,2.0776619E1,3.3835924E0,1.0172981E0,2.3662944E0],"tree_param":{"num_deleted":"0","num_feature":"18","num_nodes":"7","size_leaf_vector":"1"}},{"base_weights":[-1.4179409E-1,-5.1719766E-2,3.099601E-1,5.634037E-1,-4.858367E-2,2.1986847E-3,5.8694936E-2],"categories":[],"categories_nodes":[],"categories_segments":[],"categories_sizes":[],"default_left":[0,0,0,0,0,0,0],"id":78,"left_children":[1,-1,3,5,-1,-1,-1],"loss_changes":[1.6015781E1,0E0,8.9578285E0,4.093027E-1,0E0,0E0,0E0],"parents":[2147483647,0,0,2,2,3,3],"right_children":[2,-1,4,6,-1,-1,-1],"split_conditions":[4.99E1,-5.1719766E-2,6.03E1,5.02E1,-4.858367E-2,2.1986847E-3,5.8694936E-2],"split_indices":[17,0,17,17,0,0,0],"split_type":[0,0,0,0,0,0,0],"sum_hessian":[9.249287E1,5.0436077E1,4.2056786E1,3.2119473E1,9.937314E0,1.4192188E0,3.0700253E1],"tree_param":{"num_deleted":"0","num_feature":"18","num_nodes":"7","size_leaf_vector":"1"}},{"base_weights":[4.2181063E-1,5.8479317E-2,-5.094579E-2],"categories":[],"categories_nodes":[],"categories_segments":[],"categories_sizes":[],"default_left":[0,0,0],"id":79,"left_children":[1,-1,-1],"loss_changes":[2.412546E1,0E0,0E0],"parents":[2147483647,0,0],"right_children":[2,-1,-1],"split_conditions":[5.02E1,5.8479317E-2,-5.094579E-2],"split_indices":[17,0,0],"split_type":[0,0,0],"sum_hessian":[1.5598676E2,1.3307004E2,2.291672E1],"tree_param":{"num_deleted":"0","num_feature":"18","num_nodes":"3","size_leaf_vector":"1"}},{"base_weights":[-4.3185264E-1,-5.156195E-2,4.2637444E-1,5.3772736E-2,-2.2591497E-3],"categories":[],"categories_nodes":[],"categories_segments":[],"categories_sizes":[],"default_left":[0,0,0,0,0],"id":80,"left_children":[1,-1,3,-1,-1],"loss_changes":[5.0758038E0,0E0,3.3980215E-1,0E0,0E0],"parents":[2147483647,0,0,2,2],"right_children":[2,-1,4,-1,-1],"split_conditions":[6.97E1,-5.156195E-2,7.68E-1,5.3772736E-2,-2.2591497E-3],"split_indices":[17,0,6,0,0],"split_type":[0,0,0,0,0],"sum_hessian":[6.6546104E1,6.0992195E1,5.553911E0,4.291763E0,1.2621486E0],"tree_param":{"num_deleted":"0","num_feature":"18","num_nodes":"5","size_leaf_vector":"1"}},{"base_weights":[-2.2696102E-1,-5.15199E-2,4.6382234E-1,5.4357123E-1,-3.4779456E-2,5.6426864E-2,1.3888947E-2],"categories":[],"categories_nodes":[],"categories_segments":[],"categories_sizes":[],"default_left":[0,0,0,0,0,0,0],"id":81,"left_children":[1,-1,3,5,-1,-1,-1],"loss_changes":[1.61354E1,0E0,1.7445059E0,1.0817289E-1,0E0,0E0,0E0],"parents":[2147483647,0,0,2,2,3,3],"right_children":[2,-1,4,6,-1,-1,-1],"split_conditions":[6.03E1,-5.15199E-2,7.03E1,6.97E1,-3.4779456E-2,5.6426864E-2,1.3888947E-2],"split_indices":[17,0,17,17,0,0,0],"split_type":[0,0,0,0,0,0,0],"sum_hessian":[7.883748E1,5.5805935E1,2.3031542E1,2.1271664E1,1.7598766E0,1.9861498E1,1.4101667E0],"tree_param":{"num_deleted":"0","num_feature":"18","num_nodes":"7","size_leaf_vector":"1"}},{"base_weights":[-1.310259E-1,-5.1366597E-2,2.9251212E-1,5.526494E-1,-4.8486203E-2,3.275808E-3,5.749696E-2],"categories":[],"categories_nodes":[],"categories_segments":[],"categories_sizes":[],"default_left":[0,0,0,0,0,0,0],"id":82,"left_children":[1,-1,3,5,-1,-1,-1],"loss_changes":[1.4469778E1,0E0,8.877626E0,3.5675812E-1,0E0,0E0,0E0],"parents":[2147483647,0,0,2,2,3,3],"right_children":[2,-1,4,6,-1,-1,-1],"split_conditions":[4.99E1,-5.1366597E-2,6.03E1,5.02E1,-4.8486203E-2,3.275808E-3,5.749696E-2],"split_indices":[17,0,17,17,0,0,0],"split_type":[0,0,0,0,0,0,0],"sum_hessian":[8.735797E1,4.578305E1,4.1574917E1,3.1367357E1,1.0207561E1,1.392821E0,2.9974537E1],"tree_param":{"num_deleted":"0","num_feature":"18","num_nodes":"7","size_leaf_vector":"1"}},{"base_weights":[4.1297072E-1,5.686942E-1,-5.045061E-2,5.74101E-2,4.5247213E-3],"categories":[],"categories_nodes":[],"categories_segments":[],"categories_sizes":[],"default_left":[0,0,0,0,0],"id":83,"left_children":[1,3,-1,-1,-1],"loss_changes":[2.1169731E1,3.2899857E-1,0E0,0E0,0E0],"parents":[2147483647,0,0,1,1],"right_children":[2,4,-1,-1,-1],"split_conditions":[5.02E1,4.99E1,-5.045061E-2,5.74101E-2,4.5247213E-3],"split_indices":[17,17,0,0,0],"split_type":[0,0,0,0,0],"sum_hessian":[1.4516388E2,1.2442531E2,2.0738567E1,1.2305745E2,1.3678609E0],"tree_param":{"num_deleted":"0","num_feature":"18","num_nodes":"5","size_leaf_vector":"1"}},{"base_weights":[-4.1953626E-1,-5.1273175E-2,4.8297137E-1,5.392924E-2,1.1628304E-2],"categories":[],"categories_nodes":[],"categories_segments":[],"categories_sizes":[],"default_left":[0,0,0,0,0],"id":84,"left_children":[1,-1,3,-1,-1],"loss_changes":[5.533682E0,0E0,6.940782E-2,0E0,0E0],"parents":[2147483647,0,0,2,2],"right_children":[2,-1,4,-1,-1],"split_conditions":[6.97E1,-5.1273175E-2,4.9E1,5.392924E-2,1.1628304E-2],"split_indices":[17,0,14,0,0],"split_type":[0,0,0,0,0],"sum_hessian":[6.184711E1,5.6449825E1,5.397287E0,4.2706337E0,1.1266531E0],"tree_param":{"num_deleted":"0","num_feature":"18","num_nodes":"5","size_leaf_vector":"1"}},{"base_weights":[-2.2381726E-1,-5.1163908E-2,4.3085608E-1,5.3033376E-1,-3.6516953E-2,5.5270698E-2,1.3429209E-2],"categories":[],"categories_nodes":[],"categories_segments":[],"categories_sizes":[],"default_left":[0,0,0,0,0,0,0],"id":85,"left_children":[1,-1,3,5,-1,-1,-1],"loss_changes":[1.3601518E1,0E0,1.9539223E0,1.04475975E-1,0E0,0E0,0E0],"parents":[2147483647,0,0,2,2,3,3],"right_children":[2,-1,4,6,-1,-1,-1],"split_conditions":[6.03E1,-5.1163908E-2,7.03E1,6.97E1,-3.6516953E-2,5.5270698E-2,1.3429209E-2],"split_indices":[17,0,17,17,0,0,0],"split_type":[0,0,0,0,0,0,0],"sum_hessian":[7.001378E1,4.878454E1,2.1229242E1,1.9167673E1,2.0615704E0,1.7768326E1,1.3993466E0],"tree_param":{"num_deleted":"0","num_feature":"18","num_nodes":"7","size_leaf_vector":"1"}},{"base_weights":[-1.4460649E-1,-5.1306672E-2,2.9776508E-1,5.6448694E-2,-4.78169E-2],"categories":[],"categories_nodes":[],"categories_segments":[],"categories_sizes":[],"default_left":[0,0,0,0,0],"id":86,"left_children":[1,-1,3,-1,-1],"loss_changes":[1.3498496E1,0E0,8.101173E0,0E0,0E0],"parents":[2147483647,0,0,2,2],"right_children":[2,-1,4,-1,-1],"split_conditions":[5.02E1,-5.1306672E-2,6.03E1,5.6448694E-2,-4.78169E-2],"split_indices":[17,0,17,0,0],"split_type":[0,0,0,0,0],"sum_hessian":[8.087745E1,4.4037724E1,3.683972E1,2.7618547E1,9.221174E0],"tree_param":{"num_deleted":"0","num_feature":"18","num_nodes":"5","size_leaf_vector":"1"}},{"base_weights":[4.171599E-1,5.674947E-2,-4.9940895E-2],"categories":[],"categories_nodes":[],"categories_segments":[],"categories_sizes":[],"default_left":[0,0,0],"id":87,"left_children":[1,-1,-1],"loss_changes":[1.9001432E1,0E0,0E0],"parents":[2147483647,0,0],"right_children":[2,-1,-1],"split_conditions":[5.02E1,5.674947E-2,-4.9940895E-2],"split_indices":[17,0,0],"split_type":[0,0,0],"sum_hessian":[1.3484239E2,1.16169266E2,1.8673128E1],"tree_param":{"num_deleted":"0","num_feature":"18","num_nodes":"3","size_leaf_vector":"1"}},{"base_weights":[-4.2173266E-1,-5.02714E-1,7.6539606E-2,-5.0888706E-2,-1.1351442E-2,-1.8043771E-1,2.9077733E-1,1.6576774E-2,-3.8303483E-2,3.7733767E-2,-1.7723453E-3],"categories":[],"categories_nodes":[],"categories_segments":[],"categories_sizes":[],"default_left":[0,0,0,0,0,0,0,0,0,0,0],"id":88,"left_children":[1,3,5,-1,-1,7,9,-1,-1,-1,-1],"loss_changes":[2.3275023E0,5.979252E-2,5.368691E-1,0E0,0E0,3.873585E-1,1.450476E-1,0E0,0E0,0E0,0E0],"parents":[2147483647,0,0,1,1,2,2,5,5,6,6],"right_children":[2,4,6,-1,-1,8,10,-1,-1,-1,-1],"split_conditions":[9.32E1,9.1E-1,8.13E-1,-5.0888706E-2,-1.1351442E-2,1.67E-1,9.05E-1,1.6576774E-2,-3.8303483E-2,3.7733767E-2,-1.7723453E-3],"split_indices":[13,3,5,0,0,15,3,0,0,0,0],"split_type":[0,0,0,0,0,0,0,0,0,0,0],"sum_hessian":[5.572822E1,4.7929592E1,7.79863E0,4.6878525E1,1.0510671E0,3.6173737E0,4.181257E0,1.402506E0,2.2148676E0,3.090874E0,1.0903828E0],"tree_param":{"num_deleted":"0","num_feature":"18","num_nodes":"11","size_leaf_vector":"1"}},{"base_weights":[-2.3244813E-1,-5.0921082E-2,4.088311E-1,5.195496E-1,-3.7089784E-2,5.527106E-2,1.8440749E-1,2.9993787E-2,-1.916844E-3],"categories":[],"categories_nodes":[],"categories_segments":[],"categories_sizes":[],"default_left":[0,0,0,0,0,0,0,0,0],"id":89,"left_children":[1,-1,3,5,-1,-1,7,-1,-1],"loss_changes":[1.2286314E1,0E0,2.011729E0,1.07759E-1,0E0,0E0,8.099767E-2,0E0,0E0],"parents":[2147483647,0,0,2,2,3,3,6,6],"right_children":[2,-1,4,6,-1,-1,8,-1,-1],"split_conditions":[6.03E1,-5.0921082E-2,7.03E1,8.36E-1,-3.7089784E-2,5.527106E-2,8.57E-1,2.9993787E-2,-1.916844E-3],"split_indices":[17,0,17,9,0,0,4,0,0],"split_type":[0,0,0,0,0,0,0,0,0],"sum_hessian":[6.705265E1,4.69821E1,2.0070549E1,1.786716E1,2.2033887E0,1.5667718E1,2.1994424E0,1.1011741E0,1.0982683E0],"tree_param":{"num_deleted":"0","num_feature":"18","num_nodes":"9","size_leaf_vector":"1"}},{"base_weights":[-1.2541465E-1,-4.8429742E-1,1.351614E-1,-4.9356467E-1,-1.086002E-2,2.0727856E-1,-2.9494143E-1,-5.024531E-2,-1.2645169E-2,-1.9118519E-1,2.686152E-1,1.710934E-2,-4.294547E-2,-3.3640284E-2,1.0876234E-2,8.278893E-3,3.0029917E-1,-2.1492739E-1,3.265492E-2,3.405348E-1,-4.1100704E-3,-2.9806474E-2,-1.5235556E-3,7.783399E-4,3.6546543E-2,2.504831E-2,-1.9406915E-2],"categories":[],"categories_nodes":[],"categories_segments":[],"categories_sizes":[],"default_left":[0,0,0,0,0,0,0,0,0,0,0,0,0,0,0,0,0,0,0,0,0,0,0,0,0,0,0],"id":90,"left_children":[1,3,5,7,-1,9,11,-1,-1,13,15,-1,-1,-1,-1,17,19,21,-1,23,25,-1,-1,-1,-1,-1,-1],"loss_changes":[7.064201E0,5.6766987E-2,1.4302664E0,3.6490917E-2,0E0,9.896008E-1,4.9668968E-1,0E0,0E0,2.8509504E-1,2.753544E-1,0E0,0E0,0E0,0E0,4.0286577E-1,3.6885285E-1,5.1169097E-2,0E0,2.1707654E-1,2.6578325E-1,0E0,0E0,0E0,0E0,0E0,0E0],"parents":[2147483647,0,0,1,1,2,2,3,3,5,5,6,6,9,9,10,10,15,15,16,16,17,17,19,19,20,20],"right_children":[2,4,6,8,-1,10,12,-1,-1,14,16,-1,-1,-1,-1,18,20,22,-1,24,26,-1,-1,-1,-1,-1,-1],"split_conditions":[6.71E1,7.39E-1,9.19E1,7.66E-1,-1.086002E-2,6.13E-1,7.3E-1,-5.024531E-2,-1.2645169E-2,6.43E-1,4.02E-1,1.710934E-2,-4.294547E-2,-3.3640284E-2,1.0876234E-2,7.84E1,8.67E1,5.32E-1,3.265492E-2,5.75E-1,5.72E-1,-2.9806474E-2,-1.5235556E-3,7.783399E-4,3.6546543E-2,2.504831E-2,-1.9406915E-2],"split_indices":[13,16,13,8,0,4,4,0,0,5,5,0,0,0,0,13,13,16,0,3,7,0,0,0,0,0,0],"split_type":[0,0,0,0,0,0,0,0,0,0,0,0,0,0,0,0,0,0,0,0,0,0,0,0,0,0,0],"sum_hessian":[7.383985E1,3.0699661E1,4.3140194E1,2.9654453E1,1.0452083E0,3.738908E1,5.751113E0,2.8593496E1,1.0609564E0,4.705241E0,3.2683838E1,1.227247E0,4.5238657E0,3.0884497E0,1.6167917E0,3.6830199E0,2.900082E1,2.3556674E0,1.3273525E0,2.551029E1,3.4905286E0,1.3154038E0,1.0402635E0,1.8695407E0,2.364075E1,1.355372E0,2.1351566E0],"tree_param":{"num_deleted":"0","num_feature":"18","num_nodes":"27","size_leaf_vector":"1"}},{"base_weights":[4.0031102E-1,5.5793114E-2,-4.586402E-1,2.0035177E-3,-4.9506452E-2],"categories":[],"categories_nodes":[],"categories_segments":[],"categories_sizes":[],"default_left":[0,0,0,0,0],"id":91,"left_children":[1,-1,3,-1,-1],"loss_changes":[1.6797245E1,0E0,3.4977913E-1,0E0,0E0],"parents":[2147483647,0,0,2,2],"right_children":[2,-1,4,-1,-1],"split_conditions":[4.99E1,5.5793114E-2,5.02E1,2.0035177E-3,-4.9506452E-2],"split_indices":[17,0,17,0,0],"split_type":[0,0,0,0,0],"sum_hessian":[1.21177444E2,1.02684906E2,1.8492537E1,1.339483E0,1.7153053E1],"tree_param":{"num_deleted":"0","num_feature":"18","num_nodes":"5","size_leaf_vector":"1"}},{"base_weights":[-4.0408516E-1,-5.0728906E-2,4.145649E-1,6.9800033E-3,5.084854E-2],"categories":[],"categories_nodes":[],"categories_segments":[],"categories_sizes":[],"default_left":[0,0,0,0,0],"id":92,"left_children":[1,-1,3,-1,-1],"loss_changes":[4.722229E0,0E0,1.7591727E-1,0E0,0E0],"parents":[2147483647,0,0,2,2],"right_children":[2,-1,4,-1,-1],"split_conditions":[6.97E1,-5.0728906E-2,5.82E-1,6.9800033E-3,5.084854E-2],"split_indices":[17,0,8,0,0],"split_type":[0,0,0,0,0],"sum_hessian":[5.2403233E1,4.6874313E1,5.5289187E0,1.5569228E0,3.971996E0],"tree_param":{"num_deleted":"0","num_feature":"18","num_nodes":"5","size_leaf_vector":"1"}},{"base_weights":[-2.2275919E-1,-5.061235E-2,4.160097E-1,5.0946033E-1,-3.405909E-2,5.4402143E-2,1.7235897E-1,2.8796673E-2,-2.4406977E-3],"categories":[],"categories_nodes":[],"categories_segments":[],"categories_sizes":[],"default_left":[0,0,0,0,0,0,0,0,0],"id":93,"left_children":[1,-1,3,5,-1,-1,7,-1,-1],"loss_changes":[1.1301315E1,0E0,1.5436158E0,1.11843586E-1,0E0,0E0,7.7656664E-2,0E0,0E0],"parents":[2147483647,0,0,2,2,3,3,6,6],"right_children":[2,-1,4,6,-1,-1,8,-1,-1],"split_conditions":[6.03E1,-5.061235E-2,7.03E1,8.19E-1,-3.405909E-2,5.4402143E-2,8.01E-1,2.8796673E-2,-2.4406977E-3],"split_indices":[17,0,17,9,0,0,5,0,0],"split_type":[0,0,0,0,0,0,0,0,0],"sum_hessian":[6.027348E1,4.1895756E1,1.8377722E1,1.6648096E1,1.7296246E0,1.454324E1,2.1048572E0,1.033901E0,1.0709563E0],"tree_param":{"num_deleted":"0","num_feature":"18","num_nodes":"9","size_leaf_vector":"1"}},{"base_weights":[-1.2712708E-1,-5.0474912E-2,2.7754635E-1,5.257529E-1,-4.684181E-2,-2.637668E-3,5.512383E-1,1.3820142E-2,5.636943E-2],"categories":[],"categories_nodes":[],"categories_segments":[],"categories_sizes":[],"default_left":[0,0,0,0,0,0,0,0,0],"id":94,"left_children":[1,-1,3,5,-1,-1,7,-1,-1],"loss_changes":[1.0878326E1,0E0,6.646157E0,3.861165E-1,0E0,0E0,5.2195072E-2,0E0,0E0],"parents":[2147483647,0,0,2,2,3,3,6,6],"right_children":[2,-1,4,6,-1,-1,8,-1,-1],"split_conditions":[4.99E1,-5.0474912E-2,6.03E1,5.77E-1,-4.684181E-2,-2.637668E-3,6.73E1,1.3820142E-2,5.636943E-2],"split_indices":[17,0,17,4,0,0,13,0,0],"split_type":[0,0,0,0,0,0,0,0,0],"sum_hessian":[6.927015E1,3.570481E1,3.356534E1,2.5406857E1,8.158482E0,1.119452E0,2.4287405E1,1.0650747E0,2.322233E1],"tree_param":{"num_deleted":"0","num_feature":"18","num_nodes":"9","size_leaf_vector":"1"}},{"base_weights":[3.975881E-1,5.4498893E-1,-4.9104687E-2,5.5153705E-2,1.1403638E-2],"categories":[],"categories_nodes":[],"categories_segments":[],"categories_sizes":[],"default_left":[0,0,0,0,0],"id":95,"left_children":[1,3,-1,-1,-1],"loss_changes":[1.5175156E1,2.1391487E-1,0E0,0E0,0E0],"parents":[2147483647,0,0,1,1],"right_children":[2,4,-1,-1,-1],"split_conditions":[5.02E1,4.99E1,-4.9104687E-2,5.5153705E-2,1.1403638E-2],"split_indices":[17,17,0,0,0],"split_type":[0,0,0,0,0],"sum_hessian":[1.1281061E2,9.70923E1,1.5718309E1,9.536349E1,1.7288114E0],"tree_param":{"num_deleted":"0","num_feature":"18","num_nodes":"5","size_leaf_vector":"1"}},{"base_weights":[-4.0573505E-1,-5.0487697E-2,3.9595732E-1,5.0133377E-2,-5.964361E-3],"categories":[],"categories_nodes":[],"categories_segments":[],"categories_sizes":[],"default_left":[0,0,0,0,0],"id":96,"left_children":[1,-1,3,-1,-1],"loss_changes":[4.1532946E0,0E0,3.1962025E-1,0E0,0E0],"parents":[2147483647,0,0,2,2],"right_children":[2,-1,4,-1,-1],"split_conditions":[6.97E1,-5.0487697E-2,7.97E-1,5.0133377E-2,-5.964361E-3],"split_indices":[17,0,6,0,0],"split_type":[0,0,0,0,0],"sum_hessian":[4.8739777E1,4.3705177E1,5.0346007E0,4.0073557E0,1.027245E0],"tree_param":{"num_deleted":"0","num_feature":"18","num_nodes":"5","size_leaf_vector":"1"}},{"base_weights":[-2.186113E-1,-5.037091E-2,4.255124E-1,5.3748023E-2,-3.5010178E-2],"categories":[],"categories_nodes":[],"categories_segments":[],"categories_sizes":[],"default_left":[0,0,0,0,0],"id":97,"left_children":[1,-1,3,-1,-1],"loss_changes":[1.0718542E1,0E0,1.7593501E0,0E0,0E0],"parents":[2147483647,0,0,2,2],"right_children":[2,-1,4,-1,-1],"split_conditions":[6.03E1,-5.037091E-2,7.03E1,5.3748023E-2,-3.5010178E-2],"split_indices":[17,0,17,0,0],"split_type":[0,0,0,0,0],"sum_hessian":[5.6200542E1,3.9108562E1,1.7091982E1,1.5204135E1,1.8878465E0],"tree_param":{"num_deleted":"0","num_feature":"18","num_nodes":"5","size_leaf_vector":"1"}},{"base_weights":[-1.3303225E-1,-5.04393E-2,2.9474446E-1,5.395944E-2,-4.5781918E-2],"categories":[],"categories_nodes":[],"categories_segments":[],"categories_sizes":[],"default_left":[0,0,0,0,0],"id":98,"left_children":[1,-1,3,-1,-1],"loss_changes":[1.0191317E1,0E0,5.776526E0,0E0,0E0],"parents":[2147483647,0,0,2,2],"right_children":[2,-1,4,-1,-1],"split_conditions":[5.02E1,-5.04393E-2,6.03E1,5.395944E-2,-4.5781918E-2],"split_indices":[17,0,17,0,0],"split_type":[0,0,0,0,0],"sum_hessian":[6.2217197E1,3.320887E1,2.9008327E1,2.2100744E1,6.9075837E0],"tree_param":{"num_deleted":"0","num_feature":"18","num_nodes":"5","size_leaf_vector":"1"}},{"base_weights":[3.914172E-1,5.3803027E-1,-4.861955E-2,5.4522127E-2,1.09684495E-2],"categories":[],"categories_nodes":[],"categories_segments":[],"categories_sizes":[],"default_left":[0,0,0,0,0],"id":99,"left_children":[1,3,-1,-1,-1],"loss_changes":[1.3496987E1,2.1314812E-1,0E0,0E0,0E0],"parents":[2147483647,0,0,1,1],"right_children":[2,4,-1,-1,-1],"split_conditions":[5.02E1,4.99E1,-4.861955E-2,5.4522127E-2,1.09684495E-2],"split_indices":[17,17,0,0,0],"split_type":[0,0,0,0,0],"sum_hessian":[1.0186356E2,8.761383E1,1.4249735E1,8.589892E1,1.7149146E0],"tree_param":{"num_deleted":"0","num_feature":"18","num_nodes":"5","size_leaf_vector":"1"}},{"base_weights":[-3.976858E-1,-5.02033E-2,3.8757494E-1,4.925354E-2,-5.6917784E-3],"categories":[],"categories_nodes":[],"categories_segments":[],"categories_sizes":[],"default_left":[0,0,0,0,0],"id":100,"left_children":[1,-1,3,-1,-1],"loss_changes":[3.8488965E0,0E0,2.9841548E-1,0E0,0E0],"parents":[2147483647,0,0,2,2],"right_children":[2,-1,4,-1,-1],"split_conditions":[6.97E1,-5.02033E-2,7.97E-1,4.925354E-2,-5.6917784E-3],"split_indices":[17,0,6,0,0],"split_type":[0,0,0,0,0],"sum_hessian":[4.3597664E1,3.880222E1,4.795445E0,3.7919478E0,1.0034971E0],"tree_param":{"num_deleted":"0","num_feature":"18","num_nodes":"5","size_leaf_vector":"1"}},{"base_weights":[-2.2309507E-1,-5.0074514E-2,3.7960288E-1,4.8663357E-1,-3.406943E-2,5.16921E-2,9.666308E-3],"categories":[],"categories_nodes":[],"categories_segments":[],"categories_sizes":[],"default_left":[0,0,0,0,0,0,0],"id":101,"left_children":[1,-1,3,5,-1,-1,-1],"loss_changes":[8.82972E0,0E0,1.4649849E0,1.2818956E-1,0E0,0E0,0E0],"parents":[2147483647,0,0,2,2,3,3],"right_children":[2,-1,4,6,-1,-1,-1],"split_conditions":[6.03E1,-5.0074514E-2,7.03E1,6.97E1,-3.406943E-2,5.16921E-2,9.666308E-3],"split_indices":[17,0,17,17,0,0,0],"split_type":[0,0,0,0,0,0,0],"sum_hessian":[5.0629513E1,3.477745E1,1.5852064E1,1.4083728E1,1.7683362E0,1.2766656E1,1.3170723E0],"tree_param":{"num_deleted":"0","num_feature":"18","num_nodes":"7","size_leaf_vector":"1"}},{"base_weights":[-1.15682244E-1,-4.7305748E-1,1.3719685E-1,-4.922032E-2,-2.0013076E-1,2.0071723E-1,-2.582843E-1,-2.8881729E-2,2.7203621E-5,-1.544703E-1,2.6128435E-1,1.1296125E-2,-3.923938E-2,-3.1162057E-2,1.1776556E-2,2.9661852E-1,3.934324E-2,1.4587082E-1,3.669754E-1,-2.0949233E-2,1.9402377E-1,-1.6329657E-2,2.369632E-2,4.1421805E-2,7.4820477E-3,1.9743287E-3,2.5818154E-2],"categories":[],"categories_nodes":[],"categories_segments":[],"categories_sizes":[],"default_left":[0,0,0,0,0,0,0,0,0,0,0,0,0,0,0,0,0,0,0,0,0,0,0,0,0,0,0],"id":102,"left_children":[1,3,5,-1,7,9,11,-1,-1,13,15,-1,-1,-1,-1,17,19,21,23,-1,25,-1,-1,-1,-1,-1,-1],"loss_changes":[5.3563676E0,2.945137E-2,9.32688E-1,0E0,5.8559015E-2,7.023972E-1,3.076879E-1,0E0,0E0,2.553844E-1,1.9742095E-1,0E0,0E0,0E0,0E0,1.8879604E-1,2.2596672E-1,2.9019076E-1,1.7490554E-1,0E0,3.390664E-2,0E0,0E0,0E0,0E0,0E0,0E0],"parents":[2147483647,0,0,1,1,2,2,4,4,5,5,6,6,9,9,10,10,15,15,16,16,17,17,18,18,20,20],"right_children":[2,4,6,-1,8,10,12,-1,-1,14,16,-1,-1,-1,-1,18,20,22,24,-1,26,-1,-1,-1,-1,-1,-1],"split_conditions":[6.71E1,7.56E-1,9.19E1,-4.922032E-2,6.23E-1,6.11E-1,7.99E-1,-2.8881729E-2,2.7203621E-5,6.43E-1,7.83E-1,1.1296125E-2,-3.923938E-2,-3.1162057E-2,1.1776556E-2,7.63E1,1E0,4.54E-1,6.98E-1,-2.0949233E-2,6.15E-1,-1.6329657E-2,2.369632E-2,4.1421805E-2,7.4820477E-3,1.9743287E-3,2.5818154E-2],"split_indices":[13,9,13,0,4,4,4,0,0,5,7,0,0,0,0,13,12,5,16,0,5,0,0,0,0,0,0],"split_type":[0,0,0,0,0,0,0,0,0,0,0,0,0,0,0,0,0,0,0,0,0,0,0,0,0,0,0],"sum_hessian":[5.7551567E1,2.34876E1,3.406397E1,2.1197197E1,2.2904046E0,2.9774239E1,4.2897286E0,1.2819188E0,1.0084859E0,4.111648E0,2.566259E1,1.1802429E0,3.1094859E0,2.5151103E0,1.5965382E0,2.184783E1,3.814761E0,7.9300623E0,1.3917768E1,1.3264835E0,2.4882774E0,1.6243552E0,6.305707E0,1.1620831E1,2.2969375E0,1.0214106E0,1.4668669E0],"tree_param":{"num_deleted":"0","num_feature":"18","num_nodes":"27","size_leaf_vector":"1"}},{"base_weights":[3.846711E-1,5.0296324E-1,-2.4820393E-1,5.122531E-1,3.912924E-3,1.3700227E-1,-4.2818648E-1,5.259877E-2,2.647938E-1,-1.3812296E-2,2.5607765E-1,3.030271E-3,-4.773697E-2,3.1883094E-1,4.1305297E-4,3.557461E-2,-6.5027375E-4,3.7306253E-2,6.1880103E-3],"categories":[],"categories_nodes":[],"categories_segments":[],"categories_sizes":[],"default_left":[0,0,0,0,0,0,0,0,0,0,0,0,0,0,0,0,0,0,0],"id":103,"left_children":[1,3,5,7,-1,9,11,-1,13,-1,15,-1,-1,17,-1,-1,-1,-1,-1],"loss_changes":[7.2923555E0,3.289528E-1,1.1503764E0,1.3031387E-1,0E0,2.2446582E-1,2.6194048E-1,0E0,8.579865E-2,0E0,1.1691281E-1,0E0,0E0,4.811728E-2,0E0,0E0,0E0,0E0,0E0],"parents":[2147483647,0,0,1,1,2,2,3,3,5,5,6,6,8,8,10,10,13,13],"right_children":[2,4,6,8,-1,10,12,-1,14,-1,16,-1,-1,18,-1,-1,-1,-1,-1],"split_conditions":[7.63E1,8.38E-1,7.06E-1,7.25E1,3.912924E-3,1E0,6.27E-1,5.259877E-2,6.63E-1,-1.3812296E-2,6.8E-1,3.030271E-3,-4.773697E-2,5.59E-1,4.1305297E-4,3.557461E-2,-6.5027375E-4,3.7306253E-2,6.1880103E-3],"split_indices":[13,4,4,13,0,12,3,0,5,0,7,0,0,6,0,0,0,0,0],"split_type":[0,0,0,0,0,0,0,0,0,0,0,0,0,0,0,0,0,0,0],"sum_hessian":[9.474029E1,7.999374E1,1.4746546E1,7.832072E1,1.6730201E0,4.772036E0,9.97451E0,7.313594E1,5.1847744E0,1.3931597E0,3.3788762E0,1.0035187E0,8.970991E0,4.109663E0,1.0751112E0,2.1920316E0,1.1868446E0,3.0203176E0,1.0893456E0],"tree_param":{"num_deleted":"0","num_feature":"18","num_nodes":"19","size_leaf_vector":"1"}},{"base_weights":[-4.1378006E-1,-4.9963415E-2,3.3335704E-1,4.6314877E-2,-7.2298506E-3],"categories":[],"categories_nodes":[],"categories_segments":[],"categories_sizes":[],"default_left":[0,0,0,0,0],"id":104,"left_children":[1,-1,3,-1,-1],"loss_changes":[2.7554526E0,0E0,2.8408253E-1,0E0,0E0],"parents":[2147483647,0,0,2,2],"right_children":[2,-1,4,-1,-1],"split_conditions":[6.97E1,-4.9963415E-2,7.41E-1,4.6314877E-2,-7.2298506E-3],"split_indices":[17,0,6,0,0],"split_type":[0,0,0,0,0],"sum_hessian":[3.936019E1,3.560057E1,3.7596204E0,2.7409189E0,1.0187016E0],"tree_param":{"num_deleted":"0","num_feature":"18","num_nodes":"5","size_leaf_vector":"1"}},{"base_weights":[-2.336312E-1,-4.987543E-2,3.7313786E-1,4.750585E-1,-3.2264784E-2,5.0741423E-2,9.45223E-3],"categories":[],"categories_nodes":[],"categories_segments":[],"categories_sizes":[],"default_left":[0,0,0,0,0,0,0],"id":105,"left_children":[1,-1,3,5,-1,-1,-1],"loss_changes":[7.9612217E0,0E0,1.2360604E0,1.2099576E-1,0E0,0E0,0E0],"parents":[2147483647,0,0,2,2,3,3],"right_children":[2,-1,4,6,-1,-1,-1],"split_conditions":[6.03E1,-4.987543E-2,7.03E1,6.97E1,-3.2264784E-2,5.0741423E-2,9.45223E-3],"split_indices":[17,0,17,17,0,0,0],"split_type":[0,0,0,0,0,0,0],"sum_hessian":[4.733214E1,3.3063374E1,1.4268771E1,1.2722394E1,1.5463774E0,1.1418129E1,1.3042643E0],"tree_param":{"num_deleted":"0","num_feature":"18","num_nodes":"7","size_leaf_vector":"1"}},{"base_weights":[-1.2411572E-1,-4.9621873E-2,2.6136962E-1,5.0254124E-1,-4.5128066E-2,7.6417224E-3,5.2592207E-2],"categories":[],"categories_nodes":[],"categories_segments":[],"categories_sizes":[],"default_left":[0,0,0,0,0,0,0],"id":106,"left_children":[1,-1,3,5,-1,-1,-1],"loss_changes":[7.9700193E0,0E0,4.9535513E0,1.6924763E-1,0E0,0E0,0E0],"parents":[2147483647,0,0,2,2,3,3],"right_children":[2,-1,4,6,-1,-1,-1],"split_conditions":[4.98E1,-4.9621873E-2,6.03E1,5.02E1,-4.5128066E-2,7.6417224E-3,5.2592207E-2],"split_indices":[17,0,17,17,0,0,0],"split_type":[0,0,0,0,0,0,0],"sum_hessian":[5.3659153E1,2.715734E1,2.6501814E1,2.0021173E1,6.4806395E0,1.263412E0,1.8757761E1],"tree_param":{"num_deleted":"0","num_feature":"18","num_nodes":"7","size_leaf_vector":"1"}},{"base_weights":[3.8020635E-1,5.267497E-1,-4.7976475E-2,5.3528726E-2,7.9978155E-3],"categories":[],"categories_nodes":[],"categories_segments":[],"categories_sizes":[],"default_left":[0,0,0,0,0],"id":107,"left_children":[1,3,-1,-1,-1],"loss_changes":[1.1650548E1,2.537613E-1,0E0,0E0,0E0],"parents":[2147483647,0,0,1,1],"right_children":[2,4,-1,-1,-1],"split_conditions":[5.02E1,4.99E1,-4.7976475E-2,5.3528726E-2,7.9978155E-3],"split_indices":[17,17,0,0,0],"split_type":[0,0,0,0,0],"sum_hessian":[8.944246E1,7.675116E1,1.2691298E1,7.511757E1,1.6335882E0],"tree_param":{"num_deleted":"0","num_feature":"18","num_nodes":"5","size_leaf_vector":"1"}},{"base_weights":[-3.8969406E-1,-4.973806E-2,3.6453962E-1,4.687644E-2,-6.439961E-5],"categories":[],"categories_nodes":[],"categories_segments":[],"categories_sizes":[],"default_left":[0,0,0,0,0],"id":108,"left_children":[1,-1,3,-1,-1],"loss_changes":[3.3115673E0,0E0,2.055344E-1,0E0,0E0],"parents":[2147483647,0,0,2,2],"right_children":[2,-1,4,-1,-1],"split_conditions":[6.97E1,-4.973806E-2,7.73E-1,4.687644E-2,-6.439961E-5],"split_indices":[17,0,6,0,0],"split_type":[0,0,0,0,0],"sum_hessian":[3.7540016E1,3.3147842E1,4.3921714E0,3.196296E0,1.1958755E0],"tree_param":{"num_deleted":"0","num_feature":"18","num_nodes":"5","size_leaf_vector":"1"}},{"base_weights":[-2.1426564E-1,-4.9606528E-2,3.7455124E-1,4.7196862E-1,-3.164966E-2,5.039348E-2,9.197397E-3],"categories":[],"categories_nodes":[],"categories_segments":[],"categories_sizes":[],"default_left":[0,0,0,0,0,0,0],"id":109,"left_children":[1,-1,3,5,-1,-1,-1],"loss_changes":[7.70598E0,0E0,1.1752989E0,1.2076926E-1,0E0,0E0,0E0],"parents":[2147483647,0,0,2,2,3,3],"right_children":[2,-1,4,6,-1,-1,-1],"split_conditions":[6.03E1,-4.9606528E-2,7.03E1,6.97E1,-3.164966E-2,5.039348E-2,9.197397E-3],"split_indices":[17,0,17,17,0,0,0],"split_type":[0,0,0,0,0,0,0],"sum_hessian":[4.4321835E1,3.0082355E1,1.4239476E1,1.2757999E1,1.4814771E0,1.1467186E1,1.2908131E0],"tree_param":{"num_deleted":"0","num_feature":"18","num_nodes":"7","size_leaf_vector":"1"}},{"base_weights":[-1.0612243E-1,-4.9313635E-2,2.8629225E-1,5.121852E-1,-4.4065334E-2,1.2858524E-2,5.2570045E-1,1.48297725E-2,5.40205E-2],"categories":[],"categories_nodes":[],"categories_segments":[],"categories_sizes":[],"default_left":[0,0,0,0,0,0,0,0,0],"id":110,"left_children":[1,-1,3,5,-1,-1,7,-1,-1],"loss_changes":[7.776675E0,0E0,4.4289894E0,3.6045074E-2,0E0,0E0,2.3823261E-2,0E0,0E0],"parents":[2147483647,0,0,2,2,3,3,6,6],"right_children":[2,-1,4,6,-1,-1,8,-1,-1],"split_conditions":[4.99E1,-4.9313635E-2,6.03E1,5.02E-1,-4.4065334E-2,1.2858524E-2,5.69E-1,1.48297725E-2,5.40205E-2],"split_indices":[17,0,17,3,0,0,4,0,0],"split_type":[0,0,0,0,0,0,0,0,0],"sum_hessian":[4.927653E1,2.4679762E1,2.4596767E1,1.8990911E1,5.6058564E0,1.0041606E0,1.7986752E1,1.0811018E0,1.690565E1],"tree_param":{"num_deleted":"0","num_feature":"18","num_nodes":"9","size_leaf_vector":"1"}},{"base_weights":[3.740649E-1,5.206684E-1,-4.7495652E-2,